{"learner":{"attributes":{"best_iteration":"499","best_ntree_limit":"500","scikit_learn":"{\"n_estimators\": 500, \"objective\": \"reg:squarederror\", \"max_depth\": 3, \"max_leaves\": 6, \"max_bin\": null, \"grow_policy\": null, \"learning_rate\": 0.5, \"verbosity\": null, \"booster\": null, \"tree_method\": null, \"gamma\": null, \"min_child_weight\": null, \"max_delta_step\": null, \"subsample\": null, \"sampling_method\": null, \"colsample_bytree\": null, \"colsample_bylevel\": null, \"colsample_bynode\": null, \"reg_alpha\": null, \"reg_lambda\": null, \"scale_pos_weight\": null, \"base_score\": null, \"missing\": NaN, \"num_parallel_tree\": null, \"random_state\": 20, \"n_jobs\": null, \"monotone_constraints\": null, \"interaction_constraints\": null, \"importance_type\": null, \"gpu_id\": null, \"validate_parameters\": null, \"predictor\": null, \"enable_categorical\": false, \"feature_types\": null, \"max_cat_to_onehot\": null, \"max_cat_threshold\": null, \"eval_metric\": null, \"early_stopping_rounds\": null, \"callbacks\": null, \"_estimator_type\": \"regressor\"}"},"feature_names":["Sales","Discount","long","Quantity","Postal Code","delivery days","Product ID","lat","27","28","29","30","20","21","22","23","24","25","26","31","32","33","34","35","36","37","12","13","14","15","16","17","18","19","0","1","2","3","4","5","6","7","8","9","10","11"],"feature_types":["float","float","float","float","float","float","float","float","int","int","int","int","int","int","int","int","int","int","int","int","int","int","int","int","int","int","int","int","int","int","int","int","int","int","int","int","int","int","int","int","int","int","int","int","int","int"],"gradient_booster":{"model":{"gbtree_model_param":{"num_parallel_tree":"1","num_trees":"500","size_leaf_vector":"0"},"tree_info":[0,0,0,0,0,0,0,0,0,0,0,0,0,0,0,0,0,0,0,0,0,0,0,0,0,0,0,0,0,0,0,0,0,0,0,0,0,0,0,0,0,0,0,0,0,0,0,0,0,0,0,0,0,0,0,0,0,0,0,0,0,0,0,0,0,0,0,0,0,0,0,0,0,0,0,0,0,0,0,0,0,0,0,0,0,0,0,0,0,0,0,0,0,0,0,0,0,0,0,0,0,0,0,0,0,0,0,0,0,0,0,0,0,0,0,0,0,0,0,0,0,0,0,0,0,0,0,0,0,0,0,0,0,0,0,0,0,0,0,0,0,0,0,0,0,0,0,0,0,0,0,0,0,0,0,0,0,0,0,0,0,0,0,0,0,0,0,0,0,0,0,0,0,0,0,0,0,0,0,0,0,0,0,0,0,0,0,0,0,0,0,0,0,0,0,0,0,0,0,0,0,0,0,0,0,0,0,0,0,0,0,0,0,0,0,0,0,0,0,0,0,0,0,0,0,0,0,0,0,0,0,0,0,0,0,0,0,0,0,0,0,0,0,0,0,0,0,0,0,0,0,0,0,0,0,0,0,0,0,0,0,0,0,0,0,0,0,0,0,0,0,0,0,0,0,0,0,0,0,0,0,0,0,0,0,0,0,0,0,0,0,0,0,0,0,0,0,0,0,0,0,0,0,0,0,0,0,0,0,0,0,0,0,0,0,0,0,0,0,0,0,0,0,0,0,0,0,0,0,0,0,0,0,0,0,0,0,0,0,0,0,0,0,0,0,0,0,0,0,0,0,0,0,0,0,0,0,0,0,0,0,0,0,0,0,0,0,0,0,0,0,0,0,0,0,0,0,0,0,0,0,0,0,0,0,0,0,0,0,0,0,0,0,0,0,0,0,0,0,0,0,0,0,0,0,0,0,0,0,0,0,0,0,0,0,0,0,0,0,0,0,0,0,0,0,0,0,0,0,0,0,0,0,0,0,0,0,0,0,0,0,0,0,0,0,0,0,0,0,0,0,0,0,0,0,0,0,0,0,0,0,0,0,0,0,0,0,0,0,0,0,0,0,0,0,0,0,0,0,0,0,0,0,0,0,0,0,0,0,0,0,0,0,0,0,0,0,0,0,0],"trees":[{"base_weights":[2.9667667E1,2.537385E1,3.9456833E3,1.9174871E1,5.69154E2,1.1827408E3,4.2090503E3,3.5560295E1,-8.1096725E1,8.220334E2,-9.079073E2],"categories":[],"categories_nodes":[],"categories_segments":[],"categories_sizes":[],"default_left":[1,1,1,1,1,0,0,0,0,0,0],"id":0,"left_children":[1,3,5,7,9,-1,-1,-1,-1,-1,-1],"loss_changes":[1.0746321E8,2.1532392E7,1.15448E5,1.0386598E7,2.763965E7,0E0,0E0,0E0,0E0,0E0,0E0],"parents":[2147483647,0,0,1,1,2,2,3,3,4,4],"right_children":[2,4,6,8,10,-1,-1,-1,-1,-1,-1],"split_conditions":[2.4997307E-1,-6.8348145E-1,3.2497382E-1,-2.4345711E-1,-2.4345711E-1,5.913704E2,2.1045251E3,1.7780148E1,-4.0548363E1,4.110167E2,-4.5395364E2],"split_indices":[0,0,0,1,1,0,0,0,0,0,0],"split_type":[0,0,0,0,0,0,0,0,0,0,0],"sum_hessian":[6.396E3,6.39E3,6E0,6.319E3,7.1E1,1E0,5E0,5.432E3,8.87E2,6.1E1,1E1],"tree_param":{"num_deleted":"0","num_feature":"46","num_nodes":"11","size_leaf_vector":"0"}},{"base_weights":[1.5244993E1,1.2432392E1,2.2599048E3,3.3952076E0,1.810697E2,1.7445732E1,-9.824879E0,2.8462418E2,-7.13606E2],"categories":[],"categories_nodes":[],"categories_segments":[],"categories_sizes":[],"default_left":[1,1,0,1,1,0,0,0,0],"id":1,"left_children":[1,3,-1,5,7,-1,-1,-1,-1],"loss_changes":[4.0358296E7,9.737786E6,0E0,1.1269259E6,3.03136E7,0E0,0E0,0E0,0E0],"parents":[2147483647,0,0,1,1,3,3,4,4],"right_children":[2,4,-1,6,8,-1,-1,-1,-1],"split_conditions":[1.8480796E-1,-8.630912E-1,1.1299524E3,-6.000724E-1,4.4773575E-2,8.722866E0,-4.9124393E0,1.4231209E2,-3.56803E2],"split_indices":[0,0,0,1,1,0,0,0,0],"split_type":[0,0,0,0,0,0,0,0,0],"sum_hessian":[6.396E3,6.389E3,7E0,6.065E3,3.24E2,2.94E3,3.125E3,2.91E2,3.3E1],"tree_param":{"num_deleted":"0","num_feature":"46","num_nodes":"9","size_leaf_vector":"0"}},{"base_weights":[7.7662E0,5.0758777E0,9.609044E2,-2.0708086E0,5.4432205E1,1.36215E3,-7.839928E2,-6.865315E0,9.084234E0,7.445741E1,-8.80531E2,-1.1316139E2,1.4756124E3,-1.514867E3,-3.5412415E1],"categories":[],"categories_nodes":[],"categories_segments":[],"categories_sizes":[],"default_left":[1,1,1,1,1,1,1,0,0,0,0,0,0,0,0],"id":2,"left_children":[1,3,5,7,9,11,13,-1,-1,-1,-1,-1,-1,-1,-1],"loss_changes":[1.6398622E7,2.250557E6,1.3670299E7,2.981762E5,1.517489E7,2.677866E6,2.1348268E6,0E0,0E0,0E0,0E0,0E0,0E0,0E0,0E0],"parents":[2147483647,0,0,1,1,2,2,3,3,4,4,5,5,6,6],"right_children":[2,4,6,8,10,12,14,-1,-1,-1,-1,-1,-1,-1,-1],"split_conditions":[-3.6049062E-1,-9.336939E-1,-1.173774E-1,-9.8654294E-1,5.9257334E-1,-8.6226225E-1,1.5425733E-1,-3.4326575E0,4.542117E0,3.7228706E1,-4.402655E2,-5.6580696E1,7.378062E2,-7.574335E2,-1.7706207E1],"split_indices":[0,0,1,0,1,6,0,0,0,0,0,0,0,0,0],"split_type":[0,0,0,0,0,0,0,0,0,0,0,0,0,0,0],"sum_hessian":[6.396E3,6.379E3,1.7E1,5.573E3,8.06E2,1.4E1,3E0,3.898E3,1.675E3,7.9E2,1.6E1,1E0,1.3E1,1E0,2E0],"tree_param":{"num_deleted":"0","num_feature":"46","num_nodes":"15","size_leaf_vector":"0"}},{"base_weights":[3.8055882E0,2.9648726E0,8.988138E2,5.4113144E-1,9.220984E1,1.0891355E3,-2.639746E1,8.963591E0,-7.369851E0,1.4716647E2,-1.2006672E3,3.2884595E2,1.1969965E3],"categories":[],"categories_nodes":[],"categories_segments":[],"categories_sizes":[],"default_left":[1,1,1,1,1,1,0,0,0,0,0,0,0],"id":3,"left_children":[1,3,5,7,9,11,-1,-1,-1,-1,-1,-1,-1],"loss_changes":[4.8107415E6,1.3825826E6,1.085277E6,4.1477072E5,1.2184513E7,1.64005E4,0E0,0E0,0E0,0E0,0E0,0E0,0E0],"parents":[2147483647,0,0,1,1,2,2,3,3,4,4,5,5],"right_children":[2,4,6,8,10,12,-1,-1,-1,-1,-1,-1,-1],"split_conditions":[3.2497382E-1,-7.967304E-1,-6.898168E-1,-6.000724E-1,2.6225618E-1,3.8160503E-1,-1.319873E1,4.4817953E0,-3.6849256E0,7.358324E1,-6.003336E2,1.6442297E2,5.984982E2],"split_indices":[0,0,1,1,1,0,0,0,0,0,0,0,0],"split_type":[0,0,0,0,0,0,0,0,0,0,0,0,0],"sum_hessian":[6.396E3,6.391E3,5E0,6.223E3,1.68E2,4E0,1E0,3.014E3,3.209E3,1.62E2,6E0,1E0,3E0],"tree_param":{"num_deleted":"0","num_feature":"46","num_nodes":"13","size_leaf_vector":"0"}},{"base_weights":[1.9377743E0,9.1842604E-1,3.8443918E2,1.3839151E0,-2.6876788E2,6.01816E2,-4.7248947E2,5.657526E-1,1.8670674E2,3.9865497E2,-5.688833E2,-9.739215E0,8.47412E2,-7.5919293E2,1.9381049E2],"categories":[],"categories_nodes":[],"categories_segments":[],"categories_sizes":[],"default_left":[1,1,1,1,1,1,1,0,0,0,0,0,0,0,0],"id":4,"left_children":[1,3,5,7,9,11,13,-1,-1,-1,-1,-1,-1,-1,-1],"loss_changes":[2.493851E6,8.0141725E5,3.451051E6,9.6589206E5,2.430131E6,2.11099E6,9.112617E5,0E0,0E0,0E0,0E0,0E0,0E0,0E0,0E0],"parents":[2147483647,0,0,1,1,2,2,3,3,4,4,5,5,6,6],"right_children":[2,4,6,8,10,12,14,-1,-1,-1,-1,-1,-1,-1,-1],"split_conditions":[-3.251301E-1,-4.4696987E-1,-1.173774E-1,-6.147022E-1,-7.771646E-1,-5.6776774E-1,1.8282947E-1,2.828763E-1,9.335337E1,1.9932748E2,-2.8444165E2,-4.8696074E0,4.23706E2,-3.7959647E2,9.690524E1],"split_indices":[0,0,1,0,4,6,0,0,0,0,0,0,0,0,0],"split_type":[0,0,0,0,0,0,0,0,0,0,0,0,0,0,0],"sum_hessian":[6.396E3,6.38E3,1.6E1,6.37E3,1E1,1.3E1,3E0,6.343E3,2.7E1,3E0,7E0,4E0,9E0,2E0,1E0],"tree_param":{"num_deleted":"0","num_feature":"46","num_nodes":"15","size_leaf_vector":"0"}},{"base_weights":[9.91502E-1,7.219583E-1,8.624966E2,6.528494E0,-2.0564964E1,1.7629699E0,9.317427E1,-1.4938057E1,-2.8043982E2],"categories":[],"categories_nodes":[],"categories_segments":[],"categories_sizes":[],"default_left":[1,1,0,1,1,0,0,0,0],"id":5,"left_children":[1,3,-1,5,7,-1,-1,-1,-1],"loss_changes":[1.4848458E6,7.9070075E5,0E0,2.0751342E6,2.0006125E6,0E0,0E0,0E0,0E0],"parents":[2147483647,0,0,1,1,3,3,4,4],"right_children":[2,4,-1,6,8,-1,-1,-1,-1],"split_conditions":[7.9999363E-1,5E-1,4.312483E2,-8.8857317E-1,-7.139549E-1,8.814849E-1,4.6587135E1,-7.4690285E0,-1.4021991E2],"split_indices":[0,8,0,0,0,0,0,0,0],"split_type":[0,0,0,0,0,0,0,0,0],"sum_hessian":[6.396E3,6.395E3,1E0,5.025E3,1.37E3,4.764E3,2.61E2,1.342E3,2.8E1],"tree_param":{"num_deleted":"0","num_feature":"46","num_nodes":"9","size_leaf_vector":"0"}},{"base_weights":[5.474984E-1,3.4531E-1,6.468723E2,-3.6582246E0,2.1824627E1,-5.2845055E-1,-8.5328514E1,1.6783236E1,4.3760107E2],"categories":[],"categories_nodes":[],"categories_segments":[],"categories_sizes":[],"default_left":[1,1,0,1,1,0,0,0,0],"id":6,"left_children":[1,3,-1,5,7,-1,-1,-1,-1],"loss_changes":[8.357327E5,5.500923E5,0E0,1.3782016E6,2.0992275E6,0E0,0E0,0E0,0E0],"parents":[2147483647,0,0,1,1,3,3,4,4],"right_children":[2,4,-1,6,8,-1,-1,-1,-1],"split_conditions":[7.9999363E-1,5E-1,3.2343616E2,2.0457955E-1,-6.376639E-1,-2.6422527E-1,-4.2664257E1,8.391618E0,2.1880054E2],"split_indices":[0,21,0,1,0,0,0,0,0],"split_type":[0,0,0,0,0,0,0,0,0],"sum_hessian":[6.396E3,6.395E3,1E0,5.391E3,1.004E3,5.193E3,1.98E2,9.93E2,1.1E1],"tree_param":{"num_deleted":"0","num_feature":"46","num_nodes":"9","size_leaf_vector":"0"}},{"base_weights":[3.5311428E-1,2.0146397E-1,4.851543E2,5.790619E-1,-2.4099051E2,2.6952627E-1,4.9445322E2,-5.2267413E2,-4.5601204E1],"categories":[],"categories_nodes":[],"categories_segments":[],"categories_sizes":[],"default_left":[1,1,0,1,1,0,0,0,0],"id":7,"left_children":[1,3,-1,5,7,-1,-1,-1,-1],"loss_changes":[4.7021134E5,5.8264625E5,0E0,9.7625806E5,5.265451E5,0E0,0E0,0E0,0E0],"parents":[2147483647,0,0,1,1,3,3,4,4],"right_children":[2,4,-1,6,8,-1,-1,-1,-1],"split_conditions":[7.9999363E-1,7.13979E-2,2.4257715E2,-2.3975715E-1,-1.4285713E-1,1.3476314E-1,2.4722661E2,-2.6133707E2,-2.2800602E1],"split_indices":[0,0,0,0,5,0,0,0,0],"split_type":[0,0,0,0,0,0,0,0,0],"sum_hessian":[6.396E3,6.395E3,1E0,6.386E3,9E0,6.383E3,3E0,3E0,6E0],"tree_param":{"num_deleted":"0","num_feature":"46","num_nodes":"9","size_leaf_vector":"0"}},{"base_weights":[2.0872855E-1,-3.1711907E0,1.5123661E1,-2.1290886E0,-1.28489E2,1.8861052E1,-1.7402835E2,-2.4563622E0,1.8596251E2,-1.1599194E3,-7.6313995E1,-1.9689245E0,5.2702435E1,-6.034406E2,-1.2708049E2],"categories":[],"categories_nodes":[],"categories_segments":[],"categories_sizes":[],"default_left":[1,1,1,1,1,1,1,0,0,0,0,0,0,0,0],"id":8,"left_children":[1,3,5,7,9,11,13,-1,-1,-1,-1,-1,-1,-1,-1],"loss_changes":[3.2252888E5,6.809045E5,8.388794E5,3.1895484E5,2.225522E6,8.178055E5,3.8699406E5,0E0,0E0,0E0,0E0,0E0,0E0,0E0,0E0],"parents":[2147483647,0,0,1,1,2,2,3,3,4,4,5,5,6,6],"right_children":[2,4,6,8,10,12,14,-1,-1,-1,-1,-1,-1,-1,-1],"split_conditions":[5E-1,-6.905896E-1,2.6225618E-1,-7.124684E-1,-6.8348145E-1,-9.643812E-1,-8.3323324E-1,-1.2281811E0,9.2981255E1,-5.799597E2,-3.8156998E1,-9.8446226E-1,2.6351217E1,-3.017203E2,-6.3540245E1],"split_indices":[11,0,1,0,0,0,6,0,0,0,0,0,0,0,0],"split_type":[0,0,0,0,0,0,0,0,0,0,0,0,0,0,0],"sum_hessian":[6.396E3,5.215E3,1.181E3,5.173E3,4.2E1,1.159E3,2.2E1,5.165E3,8E0,1E0,4.1E1,7.18E2,4.41E2,1E0,2.1E1],"tree_param":{"num_deleted":"0","num_feature":"46","num_nodes":"15","size_leaf_vector":"0"}},{"base_weights":[-3.105198E-2,7.1873455E0,-6.8714905E0,-9.038703E0,7.6880905E1,1.3374474E0,-1.08287346E2,-1.771747E1,9.571437E0,6.760893E1,2.47086E2,8.5714245E0,-2.2414295E1,-9.309526E1,-8.219266E2],"categories":[],"categories_nodes":[],"categories_segments":[],"categories_sizes":[],"default_left":[1,1,1,1,1,1,1,0,0,0,0,0,0,0,0],"id":9,"left_children":[1,3,5,7,9,11,13,-1,-1,-1,-1,-1,-1,-1,-1],"loss_changes":[3.159141E5,3.5210342E6,2.7349615E6,4.0815156E5,9.112395E5,5.225236E5,2.5905322E6,0E0,0E0,0E0,0E0,0E0,0E0,0E0,0E0],"parents":[2147483647,0,0,1,1,2,2,3,3,4,4,5,5,6,6],"right_children":[2,4,6,8,10,12,14,-1,-1,-1,-1,-1,-1,-1,-1],"split_conditions":[-6.000724E-1,-9.6086705E-1,-8.9675474E-1,-9.9000454E-1,5E-1,-9.7487026E-1,9.027566E-1,-8.858735E0,4.7857184E0,3.3804466E1,1.23543E2,4.2857122E0,-1.1207148E1,-4.654763E1,-4.109633E2],"split_indices":[1,0,0,0,21,0,1,0,0,0,0,0,0,0,0],"split_type":[0,0,0,0,0,0,0,0,0,0,0,0,0,0,0],"sum_hessian":[6.396E3,3.112E3,3.284E3,2.525E3,5.87E2,3.039E3,2.45E2,1.722E3,8.03E2,5.58E2,2.9E1,2.33E3,7.09E2,2.41E2,4E0],"tree_param":{"num_deleted":"0","num_feature":"46","num_nodes":"15","size_leaf_vector":"0"}},{"base_weights":[-6.4167015E-2,1.8471237E0,-2.157888E1,1.7338083E0,3.3378784E2,-1.6718105E1,-6.4276726E1,2.0101035E0,-1.6051428E2,-1.7158499E1,3.8877464E1,-9.205065E1,-9.731236E0],"categories":[],"categories_nodes":[],"categories_segments":[],"categories_sizes":[],"default_left":[1,1,1,1,0,1,1,0,0,0,0,0,0],"id":10,"left_children":[1,3,5,7,-1,9,11,-1,-1,-1,-1,-1,-1],"loss_changes":[2.630901E5,2.204413E5,1.0726372E5,2.6368922E5,0E0,1.2174547E4,7.939617E4,0E0,0E0,0E0,0E0,0E0,0E0],"parents":[2147483647,0,0,1,1,2,2,3,3,5,5,6,6],"right_children":[2,4,6,8,-1,10,12,-1,-1,-1,-1,-1,-1],"split_conditions":[5E-1,7.9999363E-1,-8.9770705E-1,7.13979E-2,1.6689392E2,-8.994164E-1,-8.3051044E-1,1.0050517E0,-8.025714E1,-8.579249E0,1.9438732E1,-4.6025326E1,-4.865618E0],"split_indices":[25,0,0,0,0,0,0,0,0,0,0,0,0],"split_type":[0,0,0,0,0,0,0,0,0,0,0,0,0],"sum_hessian":[6.396E3,5.875E3,5.21E2,5.874E3,1E0,4.69E2,5.2E1,5.865E3,9E0,4.66E2,3E0,3.4E1,1.8E1],"tree_param":{"num_deleted":"0","num_feature":"46","num_nodes":"13","size_leaf_vector":"0"}},{"base_weights":[-2.4641098E-2,-1.0292538E-1,2.5034082E2,4.1144166E0,-3.9628987E0,-2.5373E0,7.4205475E1,-7.472301E-1,-1.0018784E2],"categories":[],"categories_nodes":[],"categories_segments":[],"categories_sizes":[],"default_left":[1,1,0,1,1,0,0,0,0],"id":11,"left_children":[1,3,-1,5,7,-1,-1,-1,-1],"loss_changes":[1.2540493E5,1.0413569E5,0E0,1.4254406E6,1.0334131E6,0E0,0E0,0E0,0E0],"parents":[2147483647,0,0,1,1,3,3,4,4],"right_children":[2,4,-1,6,8,-1,-1,-1,-1],"split_conditions":[7.9999363E-1,-8.37849E-1,1.2517041E2,-9.1503334E-1,-8.2603574E-1,-1.26865E0,3.7102737E1,-3.7361506E-1,-5.009392E1],"split_indices":[0,1,0,0,0,0,0,0,0],"split_type":[0,0,0,0,0,0,0,0,0],"sum_hessian":[6.396E3,6.395E3,1E0,3.056E3,3.339E3,2.792E3,2.64E2,3.232E3,1.07E2],"tree_param":{"num_deleted":"0","num_feature":"46","num_nodes":"9","size_leaf_vector":"0"}},{"base_weights":[4.958858E-3,-6.565867E-1,2.774988E1,2.988503E-1,-3.0638063E1,4.0979527E1,-4.620697E2,-2.5464267E-1,4.631149E1,-3.8441654E1,9.026955E1,1.06414345E2,-7.247265E1,1.20536255E2,-6.9645044E2],"categories":[],"categories_nodes":[],"categories_segments":[],"categories_sizes":[],"default_left":[1,1,1,1,1,1,1,0,0,0,0,0,0,0,0],"id":12,"left_children":[1,3,5,7,9,11,13,-1,-1,-1,-1,-1,-1,-1,-1],"loss_changes":[1.1743214E5,1.7901433E5,9.844763E5,1.542695E5,1.855682E5,1.0915755E6,6.30154E5,0E0,0E0,0E0,0E0,0E0,0E0,0E0,0E0],"parents":[2147483647,0,0,1,1,2,2,3,3,4,4,5,5,6,6],"right_children":[2,4,6,8,10,12,14,-1,-1,-1,-1,-1,-1,-1,-1],"split_conditions":[-7.756201E-1,-8.668847E-1,5.9257334E-1,-8.804184E-1,5E-1,5E-1,-7.561567E-1,-1.2732133E-1,2.3155745E1,-1.9220827E1,4.5134773E1,5.3207172E1,-3.6236324E1,6.0268127E1,-3.4822522E2],"split_indices":[0,0,1,0,21,8,0,0,0,0,0,0,0,0,0],"split_type":[0,0,0,0,0,0,0,0,0,0,0,0,0,0,0],"sum_hessian":[6.396E3,6.248E3,1.48E2,6.056E3,1.92E2,1.45E2,3E0,5.985E3,7.1E1,1.81E2,1.1E1,9.2E1,5.3E1,1E0,2E0],"tree_param":{"num_deleted":"0","num_feature":"46","num_nodes":"15","size_leaf_vector":"0"}},{"base_weights":[-3.223104E-2,3.0309603E-1,-7.91558E1,-1.8404992E-2,1.2800043E2,-2.4356503E2,9.090741E1,3.7012422E-1,-6.2959663E1,3.4677103E2,-3.793903E1,-4.1045322E2,-1.0524347E2,1.6310983E2,-4.2386206E2],"categories":[],"categories_nodes":[],"categories_segments":[],"categories_sizes":[],"default_left":[1,1,1,1,1,1,1,0,0,0,0,0,0,0,0],"id":13,"left_children":[1,3,5,7,9,11,13,-1,-1,-1,-1,-1,-1,-1,-1],"loss_changes":[1.6975095E5,2.6156262E5,7.770608E5,1.5545622E5,5.9399894E5,2.799817E5,5.8948256E5,0E0,0E0,0E0,0E0,0E0,0E0,0E0,0E0],"parents":[2147483647,0,0,1,1,2,2,3,3,4,4,5,5,6,6],"right_children":[2,4,6,8,10,12,14,-1,-1,-1,-1,-1,-1,-1,-1],"split_conditions":[-4.4696987E-1,-5.7338655E-1,1.5275276E-1,-6.9236165E-1,-8.37849E-1,-3.8107488E-1,2.6225618E-1,1.8506211E-1,-3.1479832E1,1.7338551E2,-1.8969515E1,-2.0522661E2,-5.2621735E1,8.155492E1,-2.1193103E2],"split_indices":[0,0,6,0,1,0,1,0,0,0,0,0,0,0,0],"split_type":[0,0,0,0,0,0,0,0,0,0,0,0,0,0,0],"sum_hessian":[6.396E3,6.37E3,2.6E1,6.355E3,1.5E1,1.3E1,1.3E1,6.317E3,3.8E1,6E0,9E0,5E0,8E0,1.2E1,1E0],"tree_param":{"num_deleted":"0","num_feature":"46","num_nodes":"15","size_leaf_vector":"0"}},{"base_weights":[-5.7556987E-2,1.0487926E0,-1.2511298E1,1.3024843E0,-5.3956577E1,-6.551191E0,-4.9080296E1,4.6786216E-1,3.9524437E1,-1.7681366E2,7.2754555E1,-7.394118E0,2.4831816E1,-1.7787436E1,-8.8618416E1],"categories":[],"categories_nodes":[],"categories_segments":[],"categories_sizes":[],"default_left":[1,1,1,1,1,1,1,0,0,0,0,0,0,0,0],"id":14,"left_children":[1,3,5,7,9,11,13,-1,-1,-1,-1,-1,-1,-1,-1],"loss_changes":[8.815221E4,8.206636E4,1.13451055E5,1.8660169E5,4.3318272E5,1.2087719E4,8.8743734E4,0E0,0E0,0E0,0E0,0E0,0E0,0E0,0E0],"parents":[2147483647,0,0,1,1,2,2,3,3,4,4,5,5,6,6],"right_children":[2,4,6,8,10,12,14,-1,-1,-1,-1,-1,-1,-1,-1],"split_conditions":[5E-1,-4.4696987E-1,-9.2170787E-1,-7.856027E-1,4.063082E1,-9.2616546E-1,2.857143E-1,2.3393108E-1,1.9762218E1,-8.840683E1,3.6377277E1,-3.697059E0,1.2415908E1,-8.893718E0,-4.4309208E1],"split_indices":[25,0,0,0,7,0,5,0,0,0,0,0,0,0,0],"split_type":[0,0,0,0,0,0,0,0,0,0,0,0,0,0,0],"sum_hessian":[6.396E3,5.875E3,5.21E2,5.849E3,2.6E1,4.49E2,7.2E1,5.725E3,1.24E2,1.3E1,1.3E1,4.38E2,1.1E1,4.1E1,3.1E1],"tree_param":{"num_deleted":"0","num_feature":"46","num_nodes":"15","size_leaf_vector":"0"}},{"base_weights":[-4.0740192E-2,2.7251228E1,-5.358458E-1,-1.372669E1,4.272162E1,2.3380826E-1,-3.158685E1,-1.6859919E1,-1.1003757E1,8.155324E1,3.5656326E1,-4.738165E0,4.2002435E0,1.7788818E1,-4.5239185E2],"categories":[],"categories_nodes":[],"categories_segments":[],"categories_sizes":[],"default_left":[1,1,1,1,1,1,1,0,0,0,0,0,0,0,0],"id":15,"left_children":[1,3,5,7,9,11,13,-1,-1,-1,-1,-1,-1,-1,-1],"loss_changes":[8.645348E4,7.285608E4,1.5018575E5,8.748779E1,1.9863719E4,1.2096884E5,3.1662318E6,0E0,0E0,0E0,0E0,0E0,0E0,0E0,0E0],"parents":[2147483647,0,0,1,1,2,2,3,3,4,4,5,5,6,6],"right_children":[2,4,6,8,10,12,14,-1,-1,-1,-1,-1,-1,-1,-1],"split_conditions":[-9.996617E-1,1.0979922E-1,9.027566E-1,-6.898168E-1,5E-1,-9.936147E-1,-9.8292625E-1,-8.429959E0,-5.5018787E0,4.077662E1,1.7828163E1,-2.3690825E0,2.1001217E0,8.894409E0,-2.2619592E2],"split_indices":[0,1,1,1,21,0,0,0,0,0,0,0,0,0,0],"split_type":[0,0,0,0,0,0,0,0,0,0,0,0,0,0,0],"sum_hessian":[6.396E3,1.13E2,6.283E3,3.1E1,8.2E1,6.132E3,1.51E2,1.2E1,1.9E1,1.1E1,7.1E1,2.721E3,3.411E3,1.36E2,1.5E1],"tree_param":{"num_deleted":"0","num_feature":"46","num_nodes":"15","size_leaf_vector":"0"}},{"base_weights":[-4.739801E-2,-1.6191486E0,8.386929E0,-8.6731434E-1,-5.9617676E1,2.6974277E0,9.199823E1,-1.6712302E0,5.0554665E1,2.57136E1,-1.7140546E2,-6.1572556E0,1.5580423E1,1.3557814E2,-1.08146225E2],"categories":[],"categories_nodes":[],"categories_segments":[],"categories_sizes":[],"default_left":[1,1,1,1,1,1,1,0,0,0,0,0,0,0,0],"id":16,"left_children":[1,3,5,7,9,11,13,-1,-1,-1,-1,-1,-1,-1,-1],"loss_changes":[8.4816414E4,2.351116E5,4.7783697E5,2.2021439E5,6.62598E5,1.0755444E5,5.72888E5,0E0,0E0,0E0,0E0,0E0,0E0,0E0,0E0],"parents":[2147483647,0,0,1,1,2,2,3,3,4,4,5,5,6,6],"right_children":[2,4,6,8,10,12,14,-1,-1,-1,-1,-1,-1,-1,-1],"split_conditions":[5E-1,7.0237255E-1,-9.481908E-1,4.894328E-1,-9.8967236E-1,2.1293975E-1,2.1293975E-1,-8.356151E-1,2.5277332E1,1.28568E1,-8.570273E1,-3.0786278E0,7.7902117E0,6.778907E1,-5.4073112E1],"split_indices":[21,1,0,1,0,1,1,0,0,0,0,0,0,0,0],"split_type":[0,0,0,0,0,0,0,0,0,0,0,0,0,0,0],"sum_hessian":[6.396E3,5.392E3,1.004E3,5.324E3,6.8E1,9.41E2,6.3E1,5.243E3,8.1E1,3.9E1,2.9E1,5.58E2,3.83E2,5.2E1,1.1E1],"tree_param":{"num_deleted":"0","num_feature":"46","num_nodes":"15","size_leaf_vector":"0"}},{"base_weights":[-2.8385412E-2,3.5466096E-1,-3.0279118E1,4.2646144E-2,1.3146045E2,-8.060745E1,5.187236E1,-8.27718E-1,8.1831255E0,2.427616E2,3.726735E0,-9.3282074E1,2.702246E2,1.0109398E2,-3.0564706E2],"categories":[],"categories_nodes":[],"categories_segments":[],"categories_sizes":[],"default_left":[1,1,1,1,1,1,1,0,0,0,0,0,0,0,0],"id":17,"left_children":[1,3,5,7,9,11,13,-1,-1,-1,-1,-1,-1,-1,-1],"loss_changes":[7.413554E4,2.5844448E5,3.3494506E5,4.4671754E4,2.123489E5,2.4754038E5,5.764273E5,0E0,0E0,0E0,0E0,0E0,0E0,0E0,0E0],"parents":[2147483647,0,0,1,1,2,2,3,3,4,4,5,5,6,6],"right_children":[2,4,6,8,10,12,14,-1,-1,-1,-1,-1,-1,-1,-1],"split_conditions":[-6.9236165E-1,-7.154873E-1,2.3843843E-1,5E-1,5E-1,2.6225618E-1,2.6225618E-1,-4.13859E-1,4.0915627E0,1.213808E2,1.8633676E0,-4.6641037E1,1.351123E2,5.054699E1,-1.5282353E2],"split_indices":[0,0,6,22,8,1,1,0,0,0,0,0,0,0,0],"split_type":[0,0,0,0,0,0,0,0,0,0,0,0,0,0,0],"sum_hessian":[6.396E3,6.317E3,7.9E1,6.303E3,1.4E1,4.9E1,3E1,5.695E3,6.08E2,7E0,7E0,4.8E1,1E0,2.7E1,3E0],"tree_param":{"num_deleted":"0","num_feature":"46","num_nodes":"15","size_leaf_vector":"0"}},{"base_weights":[3.4902128E-3,1.6464427E0,-6.0206714E0,-2.0599725E0,1.4214446E1,-3.5400698E-1,-4.12416E1,-4.174478E0,1.3840433E1,1.703881E1,-1.9969026E2,7.9071146E-1,-1.2228637E2,2.775345E1,-1.3442943E2],"categories":[],"categories_nodes":[],"categories_segments":[],"categories_sizes":[],"default_left":[1,1,1,1,1,1,1,0,0,0,0,0,0,0,0],"id":18,"left_children":[1,3,5,7,9,11,13,-1,-1,-1,-1,-1,-1,-1,-1],"loss_changes":[6.3323652E4,2.3419817E5,2.736167E5,1.3061005E5,6.951484E5,1.6507816E5,1.2253358E6,0E0,0E0,0E0,0E0,0E0,0E0,0E0,0E0],"parents":[2147483647,0,0,1,1,2,2,3,3,4,4,5,5,6,6],"right_children":[2,4,6,8,10,12,14,-1,-1,-1,-1,-1,-1,-1,-1],"split_conditions":[5E-1,-9.7667694E-1,4.4773575E-2,-1.173774E-1,9.027566E-1,-6.2241167E-1,-9.7008747E-1,-2.087239E0,6.9202166E0,8.519405E0,-9.984513E1,3.9535573E-1,-6.1143185E1,1.3876725E1,-6.7214714E1],"split_indices":[8,0,1,1,1,0,0,0,0,0,0,0,0,0,0],"split_type":[0,0,0,0,0,0,0,0,0,0,0,0,0,0,0],"sum_hessian":[6.396E3,5.026E3,1.37E3,3.882E3,1.144E3,1.181E3,1.89E2,3.427E3,4.55E2,1.13E3,1.4E1,1.171E3,1E1,1.09E2,8E1],"tree_param":{"num_deleted":"0","num_feature":"46","num_nodes":"15","size_leaf_vector":"0"}},{"base_weights":[-2.961019E-2,1.0078561E0,-1.0377529E1,-4.622484E-1,1.3786285E1,-5.684427E0,-6.2567646E1,5.4043883E-1,-2.2706482E1,1.9613836E0,7.905899E1,-1.5260146E0,-1.3249083E1,-7.5036934E1,2.118634E1],"categories":[],"categories_nodes":[],"categories_segments":[],"categories_sizes":[],"default_left":[1,1,1,1,1,1,1,0,0,0,0,0,0,0,0],"id":19,"left_children":[1,3,5,7,9,11,13,-1,-1,-1,-1,-1,-1,-1,-1],"loss_changes":[6.86862E4,1.0924478E5,1.424406E5,1.1634998E5,4.6295088E5,1.6840709E4,5.171872E4,0E0,0E0,0E0,0E0,0E0,0E0,0E0,0E0],"parents":[2147483647,0,0,1,1,2,2,3,3,4,4,5,5,6,6],"right_children":[2,4,6,8,10,12,14,-1,-1,-1,-1,-1,-1,-1,-1],"split_conditions":[5E-1,5E-1,-8.630427E-1,-8.702061E-1,-9.065677E-1,-9.6121496E-1,-1.173774E-1,2.7021942E-1,-1.1353241E1,9.806918E-1,3.9529495E1,-7.630073E-1,-6.6245413E0,-3.7518467E1,1.059317E1],"split_indices":[24,11,0,0,0,0,1,0,0,0,0,0,0,0,0],"split_type":[0,0,0,0,0,0,0,0,0,0,0,0,0,0,0],"sum_hessian":[6.396E3,5.814E3,5.82E2,5.215E3,5.99E2,5.35E2,4.7E1,4.991E3,2.24E2,5.08E2,9.1E1,3.46E2,1.89E2,4.1E1,6E0],"tree_param":{"num_deleted":"0","num_feature":"46","num_nodes":"15","size_leaf_vector":"0"}},{"base_weights":[-1.5568687E-2,1.03110716E-1,-1.0836764E2,-8.041537E-1,9.551437E0,-1.4384753E2,5.225586E1,-8.5706043E-1,1.0227941E2,2.7222834E0,6.749523E1,-1.8016959E2,1.8881348E1],"categories":[],"categories_nodes":[],"categories_segments":[],"categories_sizes":[],"default_left":[1,1,1,1,1,1,0,0,0,0,0,0,0],"id":20,"left_children":[1,3,5,7,9,11,-1,-1,-1,-1,-1,-1,-1],"loss_changes":[8.227122E4,5.479216E4,4.740921E4,3.1894332E4,2.2141223E5,3.8865727E4,0E0,0E0,0E0,0E0,0E0,0E0,0E0],"parents":[2147483647,0,0,1,1,2,2,3,3,4,4,5,5],"right_children":[2,4,6,8,10,12,-1,-1,-1,-1,-1,-1,-1],"split_conditions":[2.4997307E-1,5E-1,7.9999363E-1,1.676628E-1,-9.747243E-1,6.537791E-1,2.612793E1,-4.2853022E-1,5.1139706E1,1.3611417E0,3.3747616E1,-9.008479E1,9.440674E0],"split_indices":[0,18,0,0,0,3,0,0,0,0,0,0,0],"split_type":[0,0,0,0,0,0,0,0,0,0,0,0,0],"sum_hessian":[6.396E3,6.39E3,6E0,5.831E3,5.59E2,5E0,1E0,5.829E3,2E0,5.01E2,5.8E1,4E0,1E0],"tree_param":{"num_deleted":"0","num_feature":"46","num_nodes":"13","size_leaf_vector":"0"}},{"base_weights":[-2.890834E-3,1.0452663E-1,-6.2373116E1,9.186309E-3,2.0298567E2,-1.8743848E2,7.9562035E0,9.993141E-2,-1.4477692E2,2.944568E2,1.00217285E1,-1.3825439E1,-2.40701E2,4.9641964E1,-7.806738E1],"categories":[],"categories_nodes":[],"categories_segments":[],"categories_sizes":[],"default_left":[1,1,1,1,1,1,1,0,0,0,0,0,0,0,0],"id":21,"left_children":[1,3,5,7,9,11,13,-1,-1,-1,-1,-1,-1,-1,-1],"loss_changes":[4.286419E4,1.2354031E5,9.824467E4,8.390462E4,5.0000914E4,3.366047E4,3.2563086E4,0E0,0E0,0E0,0E0,0E0,0E0,0E0,0E0],"parents":[2147483647,0,0,1,1,2,2,3,3,4,4,5,5,6,6],"right_children":[2,4,6,8,10,12,14,-1,-1,-1,-1,-1,-1,-1,-1],"split_conditions":[7.13979E-2,-1.5725501E-1,5E-1,-2.8690377E-1,-4.610831E-2,-6.898168E-1,2.857143E-1,4.9965706E-2,-7.238846E1,1.472284E2,5.0108643E0,-6.9127197E0,-1.203505E2,2.4820982E1,-3.903369E1],"split_indices":[0,0,26,0,0,1,5,0,0,0,0,0,0,0,0],"split_type":[0,0,0,0,0,0,0,0,0,0,0,0,0,0,0],"sum_hessian":[6.396E3,6.386E3,1E1,6.384E3,2E0,3E0,7E0,6.381E3,3E0,1E0,1E0,1E0,2E0,5E0,2E0],"tree_param":{"num_deleted":"0","num_feature":"46","num_nodes":"15","size_leaf_vector":"0"}},{"base_weights":[-1.107096E-2,6.445461E-1,-7.3911376E0,-9.2837274E-1,4.2297745E0,3.0332115E0,-1.8234535E1,-3.0003412E0,1.1648433E1,8.666434E0,-8.076234E1,6.32216E0,-5.1644816E0,-1.053647E1,-2.5614689E1],"categories":[],"categories_nodes":[],"categories_segments":[],"categories_sizes":[],"default_left":[1,1,1,1,1,1,1,0,0,0,0,0,0,0,0],"id":22,"left_children":[1,3,5,7,9,11,13,-1,-1,-1,-1,-1,-1,-1,-1],"loss_changes":[3.0956633E4,3.3140293E4,5.9059777E4,1.0648492E5,6.7642925E5,7.231448E3,1.4274211E4,0E0,0E0,0E0,0E0,0E0,0E0,0E0,0E0],"parents":[2147483647,0,0,1,1,2,2,3,3,4,4,5,5,6,6],"right_children":[2,4,6,8,10,12,14,-1,-1,-1,-1,-1,-1,-1,-1],"split_conditions":[5E-1,-9.798356E-1,-9.8264265E-1,-2.4345711E-1,2.0457955E-1,-9.898969E-1,5E-1,-1.5001706E0,5.8242164E0,4.333217E0,-4.038117E1,3.16108E0,-2.5822408E0,-5.268235E0,-1.2807344E1],"split_indices":[25,0,0,1,1,0,26,0,0,0,0,0,0,0,0],"split_type":[0,0,0,0,0,0,0,0,0,0,0,0,0,0,0],"sum_hessian":[6.396E3,5.875E3,5.21E2,4.084E3,1.791E3,2.66E2,2.55E2,3.507E3,5.77E2,1.703E3,8.8E1,1.9E2,7.6E1,1.26E2,1.29E2],"tree_param":{"num_deleted":"0","num_feature":"46","num_nodes":"15","size_leaf_vector":"0"}},{"base_weights":[-1.32296365E-2,7.086644E-1,-7.213574E0,-1.2561907E-1,7.9601874E0,-5.5745487E0,-9.19361E1,9.4940895E-1,-9.247492E0,4.609792E1,-1.1778268E0,-9.222539E-1,-1.184374E1,-3.284912E-2,-1.4444754E2],"categories":[],"categories_nodes":[],"categories_segments":[],"categories_sizes":[],"default_left":[1,1,1,1,1,1,1,0,0,0,0,0,0,0,0],"id":23,"left_children":[1,3,5,7,9,11,13,-1,-1,-1,-1,-1,-1,-1,-1],"loss_changes":[3.3255984E4,3.518074E4,8.0444234E4,5.1158277E4,2.0915619E5,1.670127E4,5.308096E4,0E0,0E0,0E0,0E0,0E0,0E0,0E0,0E0],"parents":[2147483647,0,0,1,1,2,2,3,3,4,4,5,5,6,6],"right_children":[2,4,6,8,10,12,14,-1,-1,-1,-1,-1,-1,-1,-1],"split_conditions":[5E-1,5E-1,-7.2777414E-1,-9.352132E-1,5E-1,-9.6423733E-1,4.009159E1,4.7470447E-1,-4.623746E0,2.304896E1,-5.889134E-1,-4.6112695E-1,-5.92187E0,-1.642456E-2,-7.222377E1],"split_indices":[24,11,0,0,19,0,7,0,0,0,0,0,0,0,0],"split_type":[0,0,0,0,0,0,0,0,0,0,0,0,0,0,0],"sum_hessian":[6.396E3,5.814E3,5.82E2,5.215E3,5.99E2,5.72E2,1E1,4.666E3,5.49E2,1.15E2,4.84E2,3.29E2,2.43E2,4E0,6E0],"tree_param":{"num_deleted":"0","num_feature":"46","num_nodes":"15","size_leaf_vector":"0"}},{"base_weights":[-1.604299E-2,8.266626E-2,-5.7328766E1,1.5405394E-2,1.4320866E2,-1.3489313E2,-1.1380489E1,7.6325126E-2,-9.718588E1,2.209878E2,-6.1748047E0,-2.406018E1,-1.6381738E2,2.2800592E1,-5.126172E1],"categories":[],"categories_nodes":[],"categories_segments":[],"categories_sizes":[],"default_left":[1,1,1,1,1,1,1,0,0,0,0,0,0,0,0],"id":24,"left_children":[1,3,5,7,9,11,13,-1,-1,-1,-1,-1,-1,-1,-1],"loss_changes":[3.6194465E4,6.1484027E4,3.766829E4,3.7816047E4,3.622131E4,8.8815625E3,1.2074267E4,0E0,0E0,0E0,0E0,0E0,0E0,0E0,0E0],"parents":[2147483647,0,0,1,1,2,2,3,3,4,4,5,5,6,6],"right_children":[2,4,6,8,10,12,14,-1,-1,-1,-1,-1,-1,-1,-1],"split_conditions":[7.13979E-2,-1.5725501E-1,5E-1,-2.8690377E-1,-4.610831E-2,-6.898168E-1,5E-1,3.8162563E-2,-4.859294E1,1.104939E2,-3.0874023E0,-1.203009E1,-8.190869E1,1.1400296E1,-2.563086E1],"split_indices":[0,0,26,0,0,1,30,0,0,0,0,0,0,0,0],"split_type":[0,0,0,0,0,0,0,0,0,0,0,0,0,0,0],"sum_hessian":[6.396E3,6.386E3,1E1,6.384E3,2E0,3E0,7E0,6.381E3,3E0,1E0,1E0,1E0,2E0,4E0,3E0],"tree_param":{"num_deleted":"0","num_feature":"46","num_nodes":"15","size_leaf_vector":"0"}},{"base_weights":[-1.5731076E-2,2.2201E0,-2.0627835E0,4.7077283E-1,5.0932766E1,-6.6408056E-1,-4.881876E1,-6.4337707E0,4.7418737E0,3.2809498E1,1.1863936E2,-1.0676372E0,7.172156E1,-4.410599E2,-3.5918316E1],"categories":[],"categories_nodes":[],"categories_segments":[],"categories_sizes":[],"default_left":[1,1,1,1,1,1,1,0,0,0,0,0,0,0,0],"id":25,"left_children":[1,3,5,7,9,11,13,-1,-1,-1,-1,-1,-1,-1,-1],"loss_changes":[2.9282771E4,2.6056162E5,2.1839597E5,8.711449E4,1.26176375E5,9.483935E4,4.749862E5,0E0,0E0,0E0,0E0,0E0,0E0,0E0,0E0],"parents":[2147483647,0,0,1,1,2,2,3,3,4,4,5,5,6,6],"right_children":[2,4,6,8,10,12,14,-1,-1,-1,-1,-1,-1,-1,-1],"split_conditions":[-8.37849E-1,-8.151485E-1,-8.098719E-1,-9.956147E-1,5E-1,-8.286335E-1,-9.317317E-1,-3.2168853E0,2.3709369E0,1.6404749E1,5.931968E1,-5.338186E-1,3.586078E1,-2.2052995E2,-1.7959158E1],"split_indices":[1,0,0,0,28,0,6,0,0,0,0,0,0,0,0],"split_type":[0,0,0,0,0,0,0,0,0,0,0,0,0,0,0],"sum_hessian":[6.396E3,3.057E3,3.339E3,2.952E3,1.05E2,3.243E3,9.6E1,1.128E3,1.824E3,8.4E1,2.1E1,3.226E3,1.7E1,2E0,9.4E1],"tree_param":{"num_deleted":"0","num_feature":"46","num_nodes":"15","size_leaf_vector":"0"}},{"base_weights":[-2.7919436E-2,-8.584337E-1,5.228231E0,-9.1025186E-1,1.426925E2,3.9412389E0,6.980023E1,-5.2068263E-1,-1.1224463E1,-4.4360567E-2,1.4806523E1,4.3359337E1,8.848554E1],"categories":[],"categories_nodes":[],"categories_segments":[],"categories_sizes":[],"default_left":[1,1,1,1,0,1,1,0,0,0,0,0,0],"id":26,"left_children":[1,3,5,7,-1,9,11,-1,-1,-1,-1,-1,-1],"loss_changes":[2.7929363E4,4.122784E4,7.227438E4,2.2190139E4,0E0,3.7112758E4,4.562289E3,0E0,0E0,0E0,0E0,0E0,0E0],"parents":[2147483647,0,0,1,1,2,2,3,3,5,5,6,6],"right_children":[2,4,6,8,-1,10,12,-1,-1,-1,-1,-1,-1],"split_conditions":[5E-1,5E-1,-9.570055E-1,9.027566E-1,7.134625E1,-9.923652E-1,-9.4925594E-1,-2.6034132E-1,-5.6122317E0,-2.2180283E-2,7.4032617E0,2.1679668E1,4.424277E1],"split_indices":[23,18,0,1,0,0,0,0,0,0,0,0,0],"split_type":[0,0,0,0,0,0,0,0,0,0,0,0,0],"sum_hessian":[6.396E3,5.524E3,8.72E2,5.523E3,1E0,8.56E2,1.6E1,5.323E3,2E2,6.27E2,2.29E2,8E0,8E0],"tree_param":{"num_deleted":"0","num_feature":"46","num_nodes":"13","size_leaf_vector":"0"}},{"base_weights":[7.734261E-3,8.179607E-2,-3.940614E1,3.24217E-2,1.5766858E2,-8.5857666E1,-1.4382555E1,7.27118E-2,-6.4258545E1,-2.6117432E1,-9.706527E1,1.6208069E1,-5.667285E1],"categories":[],"categories_nodes":[],"categories_segments":[],"categories_sizes":[],"default_left":[1,1,1,1,0,1,1,0,0,0,0,0,0],"id":27,"left_children":[1,3,5,7,-1,9,11,-1,-1,-1,-1,-1,-1],"loss_changes":[1.8676469E4,4.9682746E4,1.271375E4,1.6543674E4,0E0,1.4308398E2,1.2561736E4,0E0,0E0,0E0,0E0,0E0,0E0],"parents":[2147483647,0,0,1,1,2,2,3,3,5,5,6,6],"right_children":[2,4,6,8,-1,10,12,-1,-1,-1,-1,-1,-1],"split_conditions":[-4.610831E-2,-1.5725501E-1,5E-1,-2.8690377E-1,7.883429E1,-6.898168E-1,2.857143E-1,3.63559E-2,-3.2129272E1,-1.3058716E1,-4.8532635E1,8.104034E0,-2.8336426E1],"split_indices":[0,0,26,0,0,1,5,0,0,0,0,0,0],"split_type":[0,0,0,0,0,0,0,0,0,0,0,0,0],"sum_hessian":[6.396E3,6.385E3,1.1E1,6.384E3,1E0,3E0,8E0,6.381E3,3E0,1E0,2E0,5E0,3E0],"tree_param":{"num_deleted":"0","num_feature":"46","num_nodes":"13","size_leaf_vector":"0"}},{"base_weights":[-1.6169552E-3,8.8625446E-2,-2.6155432E1,-5.492187E-1,3.497989E0,-6.8204303E0,-4.4870396E1,1.1556796E-1,-1.1331065E1,2.6012543E-1,6.283306E1,1.9405981E0,-1.144352E1,2.0877878E1,-6.1800888E1],"categories":[],"categories_nodes":[],"categories_segments":[],"categories_sizes":[],"default_left":[1,1,1,1,1,1,1,0,0,0,0,0,0,0,0],"id":28,"left_children":[1,3,5,7,9,11,13,-1,-1,-1,-1,-1,-1,-1,-1],"loss_changes":[1.510041E4,1.3867442E4,7.654749E3,3.850581E4,1.9306311E5,5.0824347E2,1.3534924E4,0E0,0E0,0E0,0E0,0E0,0E0,0E0,0E0],"parents":[2147483647,0,0,1,1,2,2,3,3,4,4,5,5,6,6],"right_children":[2,4,6,8,10,12,14,-1,-1,-1,-1,-1,-1,-1,-1],"split_conditions":[1.5E0,5E-1,-2.0123307E-1,-8.702061E-1,-9.284098E-1,-9.643565E-1,-1.4285713E-1,5.778398E-2,-5.6655326E0,1.3006271E-1,3.141653E1,9.7029907E-1,-5.72176E0,1.0438939E1,-3.0900444E1],"split_indices":[16,21,3,0,0,0,5,0,0,0,0,0,0,0,0],"split_type":[0,0,0,0,0,0,0,0,0,0,0,0,0,0,0],"sum_hessian":[6.396E3,6.375E3,2.1E1,5.371E3,1.004E3,1.1E1,1E1,5.06E3,3.11E2,9.53E2,5.1E1,4E0,7E0,2E0,8E0],"tree_param":{"num_deleted":"0","num_feature":"46","num_nodes":"15","size_leaf_vector":"0"}},{"base_weights":[-6.952653E-4,2.0078552E-1,-1.1846629E1,-1.6610464E-1,1.3908726E1,-3.6218302E0,-1.1317579E2,1.3057642E-2,-4.9892376E1,-6.3466827E1,3.0305655E1,-9.0511376E-1,-3.475093E1,-2.1590543E2,-8.356921E0],"categories":[],"categories_nodes":[],"categories_segments":[],"categories_sizes":[],"default_left":[1,1,1,1,1,1,1,0,0,0,0,0,0,0,0],"id":29,"left_children":[1,3,5,7,9,11,13,-1,-1,-1,-1,-1,-1,-1,-1],"loss_changes":[1.5270278E4,3.1641688E4,8.876517E4,5.4595453E4,2.099937E5,8.425439E3,8.433973E4,0E0,0E0,0E0,0E0,0E0,0E0,0E0,0E0],"parents":[2147483647,0,0,1,1,2,2,3,3,4,4,5,5,6,6],"right_children":[2,4,6,8,10,12,14,-1,-1,-1,-1,-1,-1,-1,-1],"split_conditions":[9.657657E-1,-7.9435E-1,-7.9025304E-1,-8.08463E-1,-5.951952E-1,-9.096986E-1,4.2853317E1,6.528821E-3,-2.4946188E1,-3.1733414E1,1.5152827E1,-4.5255688E-1,-1.7375465E1,-1.0795271E2,-4.1784606E0],"split_indices":[6,0,0,0,6,0,7,0,0,0,0,0,0,0,0],"split_type":[0,0,0,0,0,0,0,0,0,0,0,0,0,0,0],"sum_hessian":[6.396E3,6.29E3,1.06E2,6.127E3,1.63E2,9.9E1,7E0,6.106E3,2.1E1,2.8E1,1.35E2,9.2E1,7E0,3E0,4E0],"tree_param":{"num_deleted":"0","num_feature":"46","num_nodes":"15","size_leaf_vector":"0"}},{"base_weights":[-2.7153956E-2,1.133198E-1,-1.5653767E1,1.9022545E-2,1.49499E2,8.78319E1,-5.470417E1,1.0957696E-1,-2.7225826E1,1.9317632E2,9.2335205E0,1.6383531E2,-8.650925E0,-7.6632744E1,4.807137E1],"categories":[],"categories_nodes":[],"categories_segments":[],"categories_sizes":[],"default_left":[1,1,1,1,1,1,1,0,0,0,0,0,0,0,0],"id":30,"left_children":[1,3,5,7,9,11,13,-1,-1,-1,-1,-1,-1,-1,-1],"loss_changes":[1.4044014E4,8.9320664E4,2.3515073E5,1.5639727E4,2.2721977E4,1.1874572E5,9.834016E4,0E0,0E0,0E0,0E0,0E0,0E0,0E0,0E0],"parents":[2147483647,0,0,1,1,2,2,3,3,4,4,5,5,6,6],"right_children":[2,4,6,8,10,12,14,-1,-1,-1,-1,-1,-1,-1,-1],"split_conditions":[-6.221404E-1,-6.277019E-1,-6.3264453E-1,-6.9236165E-1,-6.25043E-1,-3.6049062E-1,5E-1,5.478848E-2,-1.3612913E1,9.658816E1,4.6167603E0,8.1917656E1,-4.3254623E0,-3.8316372E1,2.4035685E1],"split_indices":[0,0,4,0,0,0,28,0,0,0,0,0,0,0,0],"split_type":[0,0,0,0,0,0,0,0,0,0,0,0,0,0,0],"sum_hessian":[6.396E3,6.34E3,5.6E1,6.337E3,3E0,1.5E1,4.1E1,6.317E3,2E1,2E0,1E0,8E0,7E0,3.4E1,7E0],"tree_param":{"num_deleted":"0","num_feature":"46","num_nodes":"15","size_leaf_vector":"0"}},{"base_weights":[1.0021505E-2,-2.8799883E-1,7.6899257E0,-1.1770852E-1,-7.5024864E1,-1.4247312E1,4.2282227E1,-1.6851452E-1,1.0397222E2,-1.0905276E2,-1.1478892E1,5.104838E0,-4.5785713E1,5.6606743E1,-9.52595E0],"categories":[],"categories_nodes":[],"categories_segments":[],"categories_sizes":[],"default_left":[1,1,1,1,1,1,1,0,0,0,0,0,0,0,0],"id":31,"left_children":[1,3,5,7,9,11,13,-1,-1,-1,-1,-1,-1,-1,-1],"loss_changes":[1.464346E4,7.837654E4,1.8196984E5,3.2519984E4,2.9020883E4,8.995309E4,6.955705E4,0E0,0E0,0E0,0E0,0E0,0E0,0E0,0E0],"parents":[2147483647,0,0,1,1,2,2,3,3,4,4,5,5,6,6],"right_children":[2,4,6,8,10,12,14,-1,-1,-1,-1,-1,-1,-1,-1],"split_conditions":[-8.355063E-1,-8.406951E-1,4.0918224E1,-8.4086704E-1,-8.3905816E-1,5E-1,5.4524326E-1,-8.425726E-2,5.198611E1,-5.452638E1,-5.739446E0,2.552419E0,-2.2892857E1,2.8303371E1,-4.762975E0],"split_indices":[0,0,7,0,0,8,3,0,0,0,0,0,0,0,0],"split_type":[0,0,0,0,0,0,0,0,0,0,0,0,0,0,0],"sum_hessian":[6.396E3,6.158E3,2.38E2,6.145E3,1.3E1,1.46E2,9.2E1,6.143E3,2E0,8E0,5E0,9.1E1,5.5E1,7.2E1,2E1],"tree_param":{"num_deleted":"0","num_feature":"46","num_nodes":"15","size_leaf_vector":"0"}},{"base_weights":[4.203827E-3,1.610941E-1,-1.7449224E1,6.1198812E-2,6.339868E1,9.936061E0,-8.2469666E1,1.2618646E-1,-6.847848E1,-1.9989332E1,1.9347803E2,-9.572052E0,1.0605718E2,2.3364325E1,-1.4232132E2],"categories":[],"categories_nodes":[],"categories_segments":[],"categories_sizes":[],"default_left":[1,1,1,1,1,1,1,0,0,0,0,0,0,0,0],"id":32,"left_children":[1,3,5,7,9,11,13,-1,-1,-1,-1,-1,-1,-1,-1],"loss_changes":[1.7519543E4,4.0053082E4,1.02313805E5,2.821284E4,1.1233809E5,7.789599E4,1.11009016E5,0E0,0E0,0E0,0E0,0E0,0E0,0E0,0E0],"parents":[2147483647,0,0,1,1,2,2,3,3,4,4,5,5,6,6],"right_children":[2,4,6,8,10,12,14,-1,-1,-1,-1,-1,-1,-1,-1],"split_conditions":[-6.221404E-1,-6.512292E-1,5.7351196E-1,-6.5771836E-1,-3.9148936E-1,4.344967E-1,-2.857143E-1,6.309323E-2,-3.423924E1,-9.994666E0,9.673901E1,-4.786026E0,5.302859E1,1.1682162E1,-7.116066E1],"split_indices":[0,0,4,0,1,3,5,0,0,0,0,0,0,0,0],"split_type":[0,0,0,0,0,0,0,0,0,0,0,0,0,0,0],"sum_hessian":[6.396E3,6.34E3,5.6E1,6.331E3,9E0,4E1,1.6E1,6.326E3,5E0,6E0,3E0,3.4E1,6E0,6E0,1E1],"tree_param":{"num_deleted":"0","num_feature":"46","num_nodes":"15","size_leaf_vector":"0"}},{"base_weights":[8.562889E-3,2.2118692E1,-8.1655554E-2,7.3863597E0,1.3260445E2,4.3153137E-2,-1.4159063E1,1.2932184E0,3.0281654E1,-8.000166E-3,8.0777855E1,-2.9013823E1,4.9248024E1],"categories":[],"categories_nodes":[],"categories_segments":[],"categories_sizes":[],"default_left":[1,1,1,1,0,1,1,0,0,0,0,0,0],"id":33,"left_children":[1,3,5,7,-1,9,11,-1,-1,-1,-1,-1,-1],"loss_changes":[1.2762168E4,4.134107E4,1.1196105E4,3.3089414E3,0E0,2.6088889E4,5.41751E4,0E0,0E0,0E0,0E0,0E0,0E0],"parents":[2147483647,0,0,1,1,2,2,3,3,5,5,6,6],"right_children":[2,4,6,8,-1,10,12,-1,-1,-1,-1,-1,-1],"split_conditions":[-9.947948E-1,-8.2677746E-1,-6.221404E-1,-9.852615E-1,6.630222E1,-6.277019E-1,5E-1,6.466092E-1,1.5140827E1,-4.000083E-3,4.0388927E1,-1.4506911E1,2.4624012E1],"split_indices":[6,0,0,0,0,0,28,0,0,0,0,0,0],"split_type":[0,0,0,0,0,0,0,0,0,0,0,0,0],"sum_hessian":[6.396E3,2.5E1,6.371E3,2.3E1,2E0,6.316E3,5.5E1,1.9E1,4E0,6.313E3,3E0,4.5E1,1E1],"tree_param":{"num_deleted":"0","num_feature":"46","num_nodes":"13","size_leaf_vector":"0"}},{"base_weights":[2.500853E-2,-1.43315E-1,1.051915E1,2.2886118E-1,-4.366869E0,1.4913137E1,-3.6054184E1,6.9216615E-1,-3.9646068E0,-2.5126805E0,-2.8002499E1,3.704673E0,3.8327423E1,-9.420009E1,2.930256E1],"categories":[],"categories_nodes":[],"categories_segments":[],"categories_sizes":[],"default_left":[1,1,1,1,1,1,1,0,0,0,0,0,0,0,0],"id":34,"left_children":[1,3,5,7,9,11,13,-1,-1,-1,-1,-1,-1,-1,-1],"loss_changes":[1.1301237E4,9.899292E3,2.120659E4,1.1247986E4,2.2280342E4,2.4264762E4,3.696235E4,0E0,0E0,0E0,0E0,0E0,0E0,0E0,0E0],"parents":[2147483647,0,0,1,1,2,2,3,3,4,4,5,5,6,6],"right_children":[2,4,6,8,10,12,14,-1,-1,-1,-1,-1,-1,-1,-1],"split_conditions":[6.448365E-1,5E-1,-7.4828684E-1,5E-1,-8.754523E-1,-9.423665E-1,-6.4164233E-1,3.4608307E-1,-1.9823034E0,-1.2563403E0,-1.4001249E1,1.8523365E0,1.9163712E1,-4.7100044E1,1.465128E1],"split_indices":[3,25,0,24,0,0,0,0,0,0,0,0,0,0,0],"split_type":[0,0,0,0,0,0,0,0,0,0,0,0,0,0,0],"sum_hessian":[6.396E3,6.296E3,1E2,5.787E3,5.09E2,9.2E1,8E0,5.212E3,5.75E2,4.73E2,3.6E1,6.3E1,2.9E1,4E0,4E0],"tree_param":{"num_deleted":"0","num_feature":"46","num_nodes":"15","size_leaf_vector":"0"}},{"base_weights":[8.0761025E-3,-2.5437942E-1,6.7714887E0,2.5216268E-2,-1.6693766E1,2.4057693E1,-1.4778388E1,-1.6286299E-1,1.5661566E1,-2.7805182E1,3.7321545E1,2.5976797E1,-1.1463198E2,-1.5391565E2,-1.9802692E0],"categories":[],"categories_nodes":[],"categories_segments":[],"categories_sizes":[],"default_left":[1,1,1,1,1,1,1,0,0,0,0,0,0,0,0],"id":35,"left_children":[1,3,5,7,9,11,13,-1,-1,-1,-1,-1,-1,-1,-1],"loss_changes":[1.1357006E4,2.8309535E4,8.938676E4,1.7815418E4,6.2856945E4,3.837704E4,1.9022961E5,0E0,0E0,0E0,0E0,0E0,0E0,0E0,0E0],"parents":[2147483647,0,0,1,1,2,2,3,3,4,4,5,5,6,6],"right_children":[2,4,6,8,10,12,14,-1,-1,-1,-1,-1,-1,-1,-1],"split_conditions":[-8.355063E-1,-8.668847E-1,-4.5204014E-1,-8.804184E-1,-7.43118E1,9.77741E-1,-7.947948E-1,-8.143149E-2,7.830783E0,-1.3902591E1,1.8660772E1,1.2988399E1,-5.731599E1,-7.6957825E1,-9.901346E-1],"split_indices":[0,0,1,0,2,4,6,0,0,0,0,0,0,0,0],"split_type":[0,0,0,0,0,0,0,0,0,0,0,0,0,0,0],"sum_hessian":[6.396E3,6.158E3,2.38E2,6.056E3,1.02E2,1.32E2,1.06E2,5.985E3,7.1E1,8.5E1,1.7E1,1.31E2,1E0,8E0,9.8E1],"tree_param":{"num_deleted":"0","num_feature":"46","num_nodes":"15","size_leaf_vector":"0"}},{"base_weights":[-1.3121088E-2,3.5471473E-2,-4.4376255E1,-4.5283027E-2,1.8388548E1,-3.4882812E0,-5.060954E1,1.2068943E-2,-1.8248793E2,-4.839067E1,4.751977E1,-5.721328E1,-8.79541E0],"categories":[],"categories_nodes":[],"categories_segments":[],"categories_sizes":[],"default_left":[1,1,1,1,1,0,1,0,0,0,0,0,0],"id":36,"left_children":[1,3,5,7,9,-1,11,-1,-1,-1,-1,-1,-1],"loss_changes":[1.3791704E4,9.472893E3,1.6075234E3,6.659157E4,5.67696E4,0E0,1.1535654E3,0E0,0E0,0E0,0E0,0E0,0E0],"parents":[2147483647,0,0,1,1,2,2,3,3,4,4,6,6],"right_children":[2,4,6,8,10,-1,12,-1,-1,-1,-1,-1,-1],"split_conditions":[2.4997307E-1,-5.202217E-1,-2.0123307E-1,-5.269059E-1,0E0,-1.7441406E0,6.537791E-1,6.0344716E-3,-9.1243965E1,-2.4195335E1,2.3759886E1,-2.860664E1,-4.397705E0],"split_indices":[0,0,3,0,3,0,3,0,0,0,0,0,0],"split_type":[0,0,0,0,0,0,0,0,0,0,0,0,0],"sum_hessian":[6.396E3,6.39E3,6E0,6.363E3,2.7E1,1E0,5E0,6.362E3,1E0,8E0,1.9E1,4E0,1E0],"tree_param":{"num_deleted":"0","num_feature":"46","num_nodes":"13","size_leaf_vector":"0"}},{"base_weights":[-2.6323415E-2,1.4743135E0,-1.0142943E0,7.1608114E-1,3.7739048E1,-4.7876406E-1,-2.6298723E1,8.443578E-1,-7.918688E1,7.173843E1,-2.5088211E1,-5.965983E-1,7.371877E1,-4.2746883E1,4.7826427E1],"categories":[],"categories_nodes":[],"categories_segments":[],"categories_sizes":[],"default_left":[1,1,1,1,1,1,1,0,0,0,0,0,0,0,0],"id":37,"left_children":[1,3,5,7,9,11,13,-1,-1,-1,-1,-1,-1,-1,-1],"loss_changes":[9.485595E3,6.98156E4,5.2226945E4,2.557833E4,1.12876336E5,3.3083824E4,9.958222E4,0E0,0E0,0E0,0E0,0E0,0E0,0E0,0E0],"parents":[2147483647,0,0,1,1,2,2,3,3,4,4,5,5,6,6],"right_children":[2,4,6,8,10,12,14,-1,-1,-1,-1,-1,-1,-1,-1],"split_conditions":[5E-1,-7.578572E-1,-7.690203E-1,-7.629445E-1,-5.650215E-1,-7.7530205E-1,7.355355E-1,4.221789E-1,-3.959344E1,3.5869213E1,-1.2544106E1,-2.9829916E-1,3.6859386E1,-2.1373442E1,2.3913214E1],"split_indices":[38,0,0,0,0,0,6,0,0,0,0,0,0,0,0],"split_type":[0,0,0,0,0,0,0,0,0,0,0,0,0,0,0],"sum_hessian":[6.396E3,2.539E3,3.857E3,2.488E3,5.1E1,3.778E3,7.9E1,2.485E3,3E0,3.3E1,1.8E1,3.773E3,5E0,6.5E1,1.4E1],"tree_param":{"num_deleted":"0","num_feature":"46","num_nodes":"15","size_leaf_vector":"0"}},{"base_weights":[-9.5266225E-3,-1.07517324E-1,1.5184044E1,-2.646687E-2,-1.2882928E2,2.209334E1,-1.3059389E2,-9.380491E-2,5.340116E1,-3.2798706E1,-2.084605E2,7.821643E1,3.2764282E0],"categories":[],"categories_nodes":[],"categories_segments":[],"categories_sizes":[],"default_left":[1,1,1,1,1,1,0,0,0,0,0,0,0],"id":38,"left_children":[1,3,5,7,9,11,-1,-1,-1,-1,-1,-1,-1],"loss_changes":[9.525668E3,6.63189E4,4.4181395E4,2.286487E4,2.375089E4,4.1986258E4,0E0,0E0,0E0,0E0,0E0,0E0,0E0],"parents":[2147483647,0,0,1,1,2,2,3,3,4,4,5,5],"right_children":[2,4,6,8,10,12,-1,-1,-1,-1,-1,-1,-1],"split_conditions":[-5.6862354E-1,-5.8045894E-1,5E-1,-6.0051477E-1,-6.898168E-1,-5.135349E-1,-6.529694E1,-4.6902455E-2,2.670058E1,-1.6399353E1,-1.0423025E2,3.9108215E1,1.6382141E0],"split_indices":[0,0,45,0,1,0,0,0,0,0,0,0,0],"split_type":[0,0,0,0,0,0,0,0,0,0,0,0,0],"sum_hessian":[6.396E3,6.356E3,4E1,6.353E3,3E0,3.9E1,1E0,6.346E3,7E0,2E0,1E0,9E0,3E1],"tree_param":{"num_deleted":"0","num_feature":"46","num_nodes":"13","size_leaf_vector":"0"}},{"base_weights":[-2.3291636E-2,4.656852E-2,-2.0268976E1,3.611592E-1,-3.675443E0,-9.691116E0,-1.2120203E2,8.0828774E-1,-2.6982777E0,-4.5702853E0,-2.2779036E0,-2.0234262E1,-9.75678E-2],"categories":[],"categories_nodes":[],"categories_segments":[],"categories_sizes":[],"default_left":[1,1,1,1,1,1,0,0,0,0,0,0,0],"id":39,"left_children":[1,3,5,7,9,11,-1,-1,-1,-1,-1,-1,-1],"loss_changes":[9.048647E3,7.4670503E3,2.2313844E4,8.0457944E3,6.1112646E2,2.1220957E3,0E0,0E0,0E0,0E0,0E0,0E0,0E0],"parents":[2147483647,0,0,1,1,2,2,3,3,4,4,5,5],"right_children":[2,4,6,8,10,12,-1,-1,-1,-1,-1,-1,-1],"split_conditions":[9.953954E-1,5E-1,4.4635966E-1,-8.130614E-2,-6.898168E-1,5E-1,-6.0601013E1,4.0414387E-1,-1.3491389E0,-2.2851427E0,-1.1389518E0,-1.0117131E1,-4.87839E-2],"split_indices":[6,20,1,1,1,9,0,0,0,0,0,0,0],"split_type":[0,0,0,0,0,0,0,0,0,0,0,0,0],"sum_hessian":[6.396E3,6.375E3,2.1E1,5.879E3,4.96E2,2E1,1E0,5.13E3,7.49E2,3.01E2,1.95E2,9E0,1.1E1],"tree_param":{"num_deleted":"0","num_feature":"46","num_nodes":"13","size_leaf_vector":"0"}},{"base_weights":[-2.3391427E-2,4.9674904E-1,-1.930556E0,-2.5625888E-1,7.747181E0,1.812142E0,-1.4431691E1,-1.0783966E-2,-3.3893433E1,9.563959E0,-6.284439E1,-1.6806327E0,1.2037028E1,-3.780939E0,-8.7827354E1],"categories":[],"categories_nodes":[],"categories_segments":[],"categories_sizes":[],"default_left":[1,1,1,1,1,1,1,0,0,0,0,0,0,0,0],"id":40,"left_children":[1,3,5,7,9,11,13,-1,-1,-1,-1,-1,-1,-1,-1],"loss_changes":[6.3467417E3,2.7447559E4,6.417247E4,3.7610645E4,6.1262945E4,3.7733395E4,2.4669112E5,0E0,0E0,0E0,0E0,0E0,0E0,0E0,0E0],"parents":[2147483647,0,0,1,1,2,2,3,3,4,4,5,5,6,6],"right_children":[2,4,6,8,10,12,14,-1,-1,-1,-1,-1,-1,-1,-1],"split_conditions":[5E-1,-9.314966E-1,-9.3108934E-1,-9.3598497E-1,5E-1,-2.4345711E-1,-8.130614E-2,-5.391983E-3,-1.6946716E1,4.7819796E0,-3.1422195E1,-8.4031636E-1,6.018514E0,-1.8904696E0,-4.3913677E1],"split_indices":[8,0,0,0,14,1,1,0,0,0,0,0,0,0,0],"split_type":[0,0,0,0,0,0,0,0,0,0,0,0,0,0,0],"sum_hessian":[6.396E3,5.026E3,1.37E3,4.554E3,4.72E2,1.055E3,3.15E2,4.522E3,3.2E1,4.61E2,1.1E1,7.87E2,2.68E2,2.76E2,3.9E1],"tree_param":{"num_deleted":"0","num_feature":"46","num_nodes":"15","size_leaf_vector":"0"}},{"base_weights":[-2.4861023E-2,-1.2409477E-1,8.573472E0,7.1372785E-2,-5.901592E0,1.2009485E0,2.5609734E1,-1.511608E-1,6.469808E1,-1.1306775E2,-3.771365E0,-5.880207E-1,1.5014381E1,3.831249E1,-2.5242138E1],"categories":[],"categories_nodes":[],"categories_segments":[],"categories_sizes":[],"default_left":[1,1,1,1,1,1,1,0,0,0,0,0,0,0,0],"id":41,"left_children":[1,3,5,7,9,11,13,-1,-1,-1,-1,-1,-1,-1,-1],"loss_changes":[5.459271E3,7.1433267E3,9.138061E3,8.8010875E4,4.682924E4,1.2938427E3,1.51781875E4,0E0,0E0,0E0,0E0,0E0,0E0,0E0,0E0],"parents":[2147483647,0,0,1,1,2,2,3,3,4,4,5,5,6,6],"right_children":[2,4,6,8,10,12,14,-1,-1,-1,-1,-1,-1,-1,-1],"split_conditions":[5E-1,-8.1672746E-1,-9.690095E-1,-8.286335E-1,-8.1531215E-1,7.873874E-1,5E-1,-7.55804E-2,3.234904E1,-5.6533875E1,-1.8856825E0,-2.9401034E-1,7.5071907E0,1.9156244E1,-1.2621069E1],"split_indices":[41,0,0,0,0,6,24,0,0,0,0,0,0,0,0],"split_type":[0,0,0,0,0,0,0,0,0,0,0,0,0,0,0],"sum_hessian":[6.396E3,6.324E3,7.2E1,6.118E3,2.06E2,5.1E1,2.1E1,6.098E3,2E1,3E0,2.03E2,4.6E1,5E0,1.7E1,4E0],"tree_param":{"num_deleted":"0","num_feature":"46","num_nodes":"15","size_leaf_vector":"0"}},{"base_weights":[-1.4368479E-2,2.8072578E-1,-3.33613E0,1.5599023E0,-4.719899E-1,-2.046624E-1,-1.7970112E1,9.0516055E-1,3.1871847E1,-8.7262527E-4,-1.5027882E1,-1.5874007E0,1.5011144E1,-8.515735E0,-5.636501E1],"categories":[],"categories_nodes":[],"categories_segments":[],"categories_sizes":[],"default_left":[1,1,1,1,1,1,1,0,0,0,0,0,0,0,0],"id":42,"left_children":[1,3,5,7,9,11,13,-1,-1,-1,-1,-1,-1,-1,-1],"loss_changes":[6.2714854E3,5.658479E3,2.3917408E4,4.317697E4,2.5372855E4,9.091845E3,3.2916E4,0E0,0E0,0E0,0E0,0E0,0E0,0E0,0E0],"parents":[2147483647,0,0,1,1,2,2,3,3,4,4,5,5,6,6],"right_children":[2,4,6,8,10,12,14,-1,-1,-1,-1,-1,-1,-1,-1],"split_conditions":[5E-1,-2.5885886E-1,-9.3073744E-1,-2.7687687E-1,-8.0910903E-1,3.0976892E-1,4.344967E-1,4.5258027E-1,1.5935924E1,-4.3631264E-4,-7.513941E0,-7.9370034E-1,7.505572E0,-4.2578673E0,-2.8182505E1],"split_indices":[25,6,0,6,0,3,3,0,0,0,0,0,0,0,0],"split_type":[0,0,0,0,0,0,0,0,0,0,0,0,0,0,0],"sum_hessian":[6.396E3,5.875E3,5.21E2,2.176E3,3.699E3,4.3E2,9.1E1,2.131E3,4.5E1,3.584E3,1.15E2,3.95E2,3.5E1,7.4E1,1.7E1],"tree_param":{"num_deleted":"0","num_feature":"46","num_nodes":"15","size_leaf_vector":"0"}},{"base_weights":[-9.8191E-3,-2.0899853E-1,6.6423984E0,-1.3633224E-1,-1.5055855E2,2.2376387E1,-7.714412E0,-1.6450848E-1,8.7404976E1,2.6447796E1,-1.6795374E2,-2.060061E1,4.0515965E1],"categories":[],"categories_nodes":[],"categories_segments":[],"categories_sizes":[],"default_left":[1,1,1,1,0,1,1,0,0,0,0,0,0],"id":43,"left_children":[1,3,5,7,-1,9,11,-1,-1,-1,-1,-1,-1],"loss_changes":[8.477316E3,6.784771E4,4.2188145E4,1.5331872E4,0E0,7.3409125E4,6.174226E4,0E0,0E0,0E0,0E0,0E0,0E0],"parents":[2147483647,0,0,1,1,2,2,3,3,5,5,6,6],"right_children":[2,4,6,8,-1,10,12,-1,-1,-1,-1,-1,-1],"split_conditions":[-8.05281E-1,-8.068832E-1,1.6699179E-1,-8.0704594E-1,-7.5279274E1,5.9257334E-1,5E-1,-8.225424E-2,4.3702488E1,1.3223898E1,-8.397687E1,-1.0300305E1,2.0257982E1],"split_indices":[0,0,3,0,0,1,28,0,0,0,0,0,0],"split_type":[0,0,0,0,0,0,0,0,0,0,0,0,0],"sum_hessian":[6.396E3,6.211E3,1.85E2,6.209E3,2E0,8.8E1,9.7E1,6.208E3,1E0,8.7E1,1E0,7.7E1,2E1],"tree_param":{"num_deleted":"0","num_feature":"46","num_nodes":"13","size_leaf_vector":"0"}},{"base_weights":[-1.9362573E-2,-8.855074E-2,1.2559599E1,-5.8325056E-2,-3.8511864E1,4.5849004E0,2.9542133E1,-9.9820875E-2,3.2896645E1,-5.0902405E1,5.5251465E0,2.390745E1,-7.7782497E0,-4.4228928E1,4.1342133E1],"categories":[],"categories_nodes":[],"categories_segments":[],"categories_sizes":[],"default_left":[1,1,1,1,1,1,1,0,0,0,0,0,0,0,0],"id":44,"left_children":[1,3,5,7,9,11,13,-1,-1,-1,-1,-1,-1,-1,-1],"loss_changes":[5.5685186E3,7.3875576E3,4.604623E3,8.699176E3,3.0094556E3,6.1581475E3,1.1404002E4,0E0,0E0,0E0,0E0,0E0,0E0,0E0,0E0],"parents":[2147483647,0,0,1,1,2,2,3,3,4,4,5,5,6,6],"right_children":[2,4,6,8,10,12,14,-1,-1,-1,-1,-1,-1,-1,-1],"split_conditions":[8.947375E-1,3.2497382E-1,-8.2460535E-1,-1.5725501E-1,7.9999363E-1,5E-1,-2.857143E-1,-4.9910437E-2,1.6448322E1,-2.5451202E1,2.7625732E0,1.1953725E1,-3.8891249E0,-2.2114464E1,2.0671066E1],"split_indices":[3,0,0,0,0,38,5,0,0,0,0,0,0,0,0],"split_type":[0,0,0,0,0,0,0,0,0,0,0,0,0,0,0],"sum_hessian":[6.396E3,6.362E3,3.4E1,6.358E3,4E0,2.4E1,1E1,6.351E3,7E0,3E0,1E0,9E0,1.5E1,1E0,9E0],"tree_param":{"num_deleted":"0","num_feature":"46","num_nodes":"15","size_leaf_vector":"0"}},{"base_weights":[-9.629483E-3,7.896339E-2,-9.693582E0,-4.07583E-2,1.7612179E1,-7.631831E1,-5.3845274E-1,7.6849476E-2,-7.400021E1,8.554158E1,-1.8131035E1,-1.470339E2,-1.862529E1,2.4988993E1,-2.7027014E1],"categories":[],"categories_nodes":[],"categories_segments":[],"categories_sizes":[],"default_left":[1,1,1,1,1,1,1,0,0,0,0,0,0,0,0],"id":45,"left_children":[1,3,5,7,9,11,13,-1,-1,-1,-1,-1,-1,-1,-1],"loss_changes":[5.488938E3,1.3309053E4,3.5336473E4,5.4786992E4,1.0595561E5,2.582002E4,3.5837008E4,0E0,0E0,0E0,0E0,0E0,0E0,0E0,0E0],"parents":[2147483647,0,0,1,1,2,2,3,3,4,4,5,5,6,6],"right_children":[2,4,6,8,10,12,14,-1,-1,-1,-1,-1,-1,-1,-1],"split_conditions":[-6.25043E-1,-7.249289E-1,-6.050869E-1,-7.41073E-1,5E-1,-1.4285713E-1,-8.37849E-1,3.8424738E-2,-3.7000107E1,4.277079E1,-9.065517E0,-7.351695E1,-9.312645E0,1.2494496E1,-1.3513507E1],"split_indices":[0,0,0,0,38,5,1,0,0,0,0,0,0,0,0],"split_type":[0,0,0,0,0,0,0,0,0,0,0,0,0,0,0],"sum_hessian":[6.396E3,6.339E3,5.7E1,6.297E3,4.2E1,6E0,5.1E1,6.288E3,9E0,1.4E1,2.8E1,2E0,4E0,2.6E1,2.5E1],"tree_param":{"num_deleted":"0","num_feature":"46","num_nodes":"15","size_leaf_vector":"0"}},{"base_weights":[-1.8431313E-2,9.403087E-3,-2.5428606E1,-3.6621816E-2,1.834974E1,-1.1897314E1,-3.950456E1,2.9333338E-2,-7.00639E1,-3.2426514E1,5.2058144E1,-1.3819885E1,-2.1035156E0],"categories":[],"categories_nodes":[],"categories_segments":[],"categories_sizes":[],"default_left":[1,1,1,1,1,1,0,0,0,0,0,0,0],"id":46,"left_children":[1,3,5,7,9,11,-1,-1,-1,-1,-1,-1,-1],"loss_changes":[4.52469E3,5.3953936E3,8.632622E2,2.9450633E4,2.907345E4,6.507599E1,0E0,0E0,0E0,0E0,0E0,0E0,0E0],"parents":[2147483647,0,0,1,1,2,2,3,3,4,4,5,5],"right_children":[2,4,6,8,10,12,-1,-1,-1,-1,-1,-1,-1],"split_conditions":[2.4997307E-1,-3.956358E-1,2.857143E-1,-4.4696987E-1,0E0,7.9999363E-1,-1.975228E1,1.4666669E-2,-3.503195E1,-1.6213257E1,2.6029072E1,-6.9099426E0,-1.0517578E0],"split_indices":[0,0,5,0,3,0,0,0,0,0,0,0,0],"split_type":[0,0,0,0,0,0,0,0,0,0,0,0,0],"sum_hessian":[6.396E3,6.39E3,6E0,6.375E3,1.5E1,4E0,2E0,6.37E3,5E0,6E0,9E0,3E0,1E0],"tree_param":{"num_deleted":"0","num_feature":"46","num_nodes":"13","size_leaf_vector":"0"}},{"base_weights":[-1.748742E-2,7.9895425E-1,-8.736606E-1,2.8323942E-1,1.0334922E1,-5.578187E-2,-6.60496E0,5.109853E-1,-3.8841522E1,2.2098093E1,-1.5605884E1,-1.2563565E-1,3.1725342E1,-1.5523341E0,-1.6563332E2],"categories":[],"categories_nodes":[],"categories_segments":[],"categories_sizes":[],"default_left":[1,1,1,1,1,1,1,0,0,0,0,0,0,0,0],"id":47,"left_children":[1,3,5,7,9,11,13,-1,-1,-1,-1,-1,-1,-1,-1],"loss_changes":[4.4723E3,1.6102998E4,1.4638721E4,2.771369E4,5.160941E4,6.073552E3,3.1311212E5,0E0,0E0,0E0,0E0,0E0,0E0,0E0,0E0],"parents":[2147483647,0,0,1,1,2,2,3,3,4,4,5,5,6,6],"right_children":[2,4,6,8,10,12,14,-1,-1,-1,-1,-1,-1,-1,-1],"split_conditions":[2.067288E-1,-8.592621E-1,-9.35388E-1,-8.702061E-1,5E-1,-9.363035E-1,2.6225618E-1,2.5549266E-1,-1.9420761E1,1.10490465E1,-7.802942E0,-6.281783E-2,1.5862671E1,-7.7616704E-1,-8.281666E1],"split_indices":[4,0,0,0,27,0,1,0,0,0,0,0,0,0,0],"split_type":[0,0,0,0,0,0,0,0,0,0,0,0,0,0,0],"sum_hessian":[6.396E3,3.274E3,3.122E3,3.107E3,1.67E2,2.733E3,3.89E2,3.09E3,1.7E1,1.15E2,5.2E1,2.728E3,5E0,3.78E2,1.1E1],"tree_param":{"num_deleted":"0","num_feature":"46","num_nodes":"15","size_leaf_vector":"0"}},{"base_weights":[-2.1829974E-2,7.020318E-2,-7.289875E0,-9.188239E-3,2.3876724E1,-1.7186916E1,5.022561E1,6.933177E-2,-4.1146366E1,4.6533634E1,-4.052116E1,1.0600397E2,-2.2446405E1,7.8391846E1,-2.5704834E1],"categories":[],"categories_nodes":[],"categories_segments":[],"categories_sizes":[],"default_left":[1,1,1,1,1,1,1,0,0,0,0,0,0,0,0],"id":48,"left_children":[1,3,5,7,9,11,13,-1,-1,-1,-1,-1,-1,-1,-1],"loss_changes":[4.279472E3,1.194145E4,4.6401875E4,2.0345969E4,3.2525795E4,4.7085957E4,2.7679146E4,0E0,0E0,0E0,0E0,0E0,0E0,0E0,0E0],"parents":[2147483647,0,0,1,1,2,2,3,3,4,4,5,5,6,6],"right_children":[2,4,6,8,10,12,14,-1,-1,-1,-1,-1,-1,-1,-1],"split_conditions":[-6.9236165E-1,-7.249289E-1,-2.4345711E-1,-7.4291426E-1,8.9401925E-1,-9.7017014E-1,4.344967E-1,3.4665886E-2,-2.0573183E1,2.3266817E1,-2.026058E1,5.3001984E1,-1.1223203E1,3.9195923E1,-1.2852417E1],"split_indices":[0,0,1,0,4,6,3,0,0,0,0,0,0,0,0],"split_type":[0,0,0,0,0,0,0,0,0,0,0,0,0,0,0],"sum_hessian":[6.396E3,6.317E3,7.9E1,6.297E3,2E1,6.8E1,1.1E1,6.286E3,1.1E1,1.5E1,5E0,2E0,6.6E1,8E0,3E0],"tree_param":{"num_deleted":"0","num_feature":"46","num_nodes":"15","size_leaf_vector":"0"}},{"base_weights":[-3.0069323E-3,-2.4239156E-1,3.1016822E0,-1.5306774E-1,-3.1354853E1,1.4161961E2,1.5693225E0,1.1802378E-1,-5.6800423E0,-7.320926E1,5.264157E0,1.7601162E1,1.6822394E2,1.3194762E1,-8.579494E0],"categories":[],"categories_nodes":[],"categories_segments":[],"categories_sizes":[],"default_left":[1,1,1,1,1,1,1,0,0,0,0,0,0,0,0],"id":49,"left_children":[1,3,5,7,9,11,13,-1,-1,-1,-1,-1,-1,-1,-1],"loss_changes":[4.755097E3,1.6502955E4,9.6992516E4,8.876693E3,2.644072E4,1.3536195E4,5.3678152E4,0E0,0E0,0E0,0E0,0E0,0E0,0E0,0E0],"parents":[2147483647,0,0,1,1,2,2,3,3,4,4,5,5,6,6],"right_children":[2,4,6,8,10,12,14,-1,-1,-1,-1,-1,-1,-1,-1],"split_conditions":[-8.9183456E-1,-8.9675474E-1,-8.910687E-1,5E-1,-3.3421224E-1,-1.0965987E2,-8.37849E-1,5.901189E-2,-2.8400211E0,-3.660463E1,2.6320784E0,8.800581E0,8.411197E1,6.597381E0,-4.289747E0],"split_indices":[0,0,0,15,4,2,1,0,0,0,0,0,0,0,0],"split_type":[0,0,0,0,0,0,0,0,0,0,0,0,0,0,0],"sum_hessian":[6.396E3,5.939E3,4.57E2,5.923E3,1.6E1,4E0,4.53E2,5.647E3,2.76E2,7E0,9E0,1E0,3E0,2.11E2,2.42E2],"tree_param":{"num_deleted":"0","num_feature":"46","num_nodes":"15","size_leaf_vector":"0"}},{"base_weights":[7.6364274E-3,-3.752812E0,2.1606648E-1,-1.2351463E0,-1.9207499E1,-4.297253E-1,1.9460146E0,-1.7266539E0,4.6361305E1,-1.024593E2,-1.1202618E1,-1.5087947E0,6.7792053E0,3.8340287E0,-4.1978928E1],"categories":[],"categories_nodes":[],"categories_segments":[],"categories_sizes":[],"default_left":[1,1,1,1,1,1,1,0,0,0,0,0,0,0,0],"id":50,"left_children":[1,3,5,7,9,11,13,-1,-1,-1,-1,-1,-1,-1,-1],"loss_changes":[5.0147183E3,1.3049947E4,6.77322E3,6.864316E3,3.0173959E4,3.4354234E4,1.3683106E5,0E0,0E0,0E0,0E0,0E0,0E0,0E0,0E0],"parents":[2147483647,0,0,1,1,2,2,3,3,4,4,5,5,6,6],"right_children":[2,4,6,8,10,12,14,-1,-1,-1,-1,-1,-1,-1,-1],"split_conditions":[-9.071071E-1,-9.4960326E-1,-9.735657E-1,-9.526838E-1,3.2143414E1,-2.4345711E-1,3.2195693E-1,-8.6332697E-1,2.3180653E1,-5.122965E1,-5.601309E0,-7.5439733E-1,3.3896027E0,1.9170144E0,-2.0989464E1],"split_indices":[6,0,0,0,7,1,1,0,0,0,0,0,0,0,0],"split_type":[0,0,0,0,0,0,0,0,0,0,0,0,0,0,0],"sum_hessian":[6.396E3,3.35E2,6.061E3,2.89E2,4.6E1,4.414E3,1.647E3,2.87E2,2E0,3E0,4.3E1,3.84E3,5.74E2,1.58E3,6.7E1],"tree_param":{"num_deleted":"0","num_feature":"46","num_nodes":"15","size_leaf_vector":"0"}},{"base_weights":[-4.1462597E-3,1.6054305E-1,-5.0816364E0,4.7263238E-1,-2.8455327E0,4.57205E0,-4.1736595E1,-1.3734943E0,1.2631727E0,-1.8619995E0,-5.381999E1,2.701497E1,2.1584253E-1,-2.9743767E1,-1.0873627E2],"categories":[],"categories_nodes":[],"categories_segments":[],"categories_sizes":[],"default_left":[1,1,1,1,1,1,1,0,0,0,0,0,0,0,0],"id":51,"left_children":[1,3,5,7,9,11,13,-1,-1,-1,-1,-1,-1,-1,-1],"loss_changes":[5.350041E3,5.815148E3,7.131577E4,8.196478E3,2.912853E4,1.5636733E4,3.051343E4,0E0,0E0,0E0,0E0,0E0,0E0,0E0,0E0],"parents":[2147483647,0,0,1,1,2,2,3,3,4,4,5,5,6,6],"right_children":[2,4,6,8,10,12,14,-1,-1,-1,-1,-1,-1,-1,-1],"split_conditions":[9.027566E-1,5E-1,-9.969223E-1,-9.9719477E-1,-7.2777414E-1,5E-1,4.344967E-1,-6.8674713E-1,6.315864E-1,-9.3099976E-1,-2.6909994E1,1.3507485E1,1.07921265E-1,-1.4871883E1,-5.4368134E1],"split_indices":[1,24,0,0,0,21,3,0,0,0,0,0,0,0,0],"split_type":[0,0,0,0,0,0,0,0,0,0,0,0,0,0,0],"sum_hessian":[6.396E3,6.196E3,2E2,5.614E3,5.82E2,1.59E2,4.1E1,1.683E3,3.931E3,5.72E2,1E1,2.5E1,1.34E2,3.6E1,5E0],"tree_param":{"num_deleted":"0","num_feature":"46","num_nodes":"15","size_leaf_vector":"0"}},{"base_weights":[-1.5129598E-2,2.731743E-1,-3.5300279E0,-3.0656732E-3,6.0917473E0,-2.2120879E0,-5.5294495E1,7.3622924E-1,-2.5101123E0,4.497822E0,1.10166374E2,-3.8440387E0,2.3919844E1,1.1636741E0,-1.6850175E2],"categories":[],"categories_nodes":[],"categories_segments":[],"categories_sizes":[],"default_left":[1,1,1,1,1,1,1,0,0,0,0,0,0,0,0],"id":52,"left_children":[1,3,5,7,9,11,13,-1,-1,-1,-1,-1,-1,-1,-1],"loss_changes":[6.483421E3,9.504116E3,3.2965582E4,1.0466408E4,4.396226E4,2.0306166E4,7.689377E4,0E0,0E0,0E0,0E0,0E0,0E0,0E0,0E0],"parents":[2147483647,0,0,1,1,2,2,3,3,4,4,5,5,6,6],"right_children":[2,4,6,8,10,12,14,-1,-1,-1,-1,-1,-1,-1,-1],"split_conditions":[5E-1,5E-1,5E-1,5E-1,-7.580586E-1,-9.1024673E-1,-9.574951E-1,3.6811462E-1,-1.2550561E0,2.248911E0,5.5083187E1,-1.9220194E0,1.1959922E1,5.8183706E-1,-8.425088E1],"split_indices":[19,14,14,8,0,0,0,0,0,0,0,0,0,0,0],"split_type":[0,0,0,0,0,0,0,0,0,0,0,0,0,0,0],"sum_hessian":[6.396E3,5.912E3,4.84E2,5.645E3,2.67E2,4.73E2,1.1E1,4.36E3,1.285E3,2.64E2,3E0,4.46E2,2.7E1,8E0,3E0],"tree_param":{"num_deleted":"0","num_feature":"46","num_nodes":"15","size_leaf_vector":"0"}},{"base_weights":[-1.0251556E-2,2.7914897E-1,-3.2679284E0,-3.2644406E-1,2.0056603E0,4.2341056E0,-7.6096883E0,-1.0691701E0,4.204354E0,-8.0910695E-1,1.3416534E1,6.369465E0,2.8998113E0,-5.0296297E0,-1.770082E1],"categories":[],"categories_nodes":[],"categories_segments":[],"categories_sizes":[],"default_left":[1,1,1,1,1,1,1,0,0,0,0,0,0,0,0],"id":53,"left_children":[1,3,5,7,9,11,13,-1,-1,-1,-1,-1,-1,-1,-1],"loss_changes":[6.0318335E3,6.1443843E3,1.7034822E4,1.4646227E4,4.9024383E4,5.2857544E2,8.528791E3,0E0,0E0,0E0,0E0,0E0,0E0,0E0,0E0],"parents":[2147483647,0,0,1,1,2,2,3,3,4,4,5,5,6,6],"right_children":[2,4,6,8,10,12,14,-1,-1,-1,-1,-1,-1,-1,-1],"split_conditions":[5E-1,-9.735657E-1,-9.897659E-1,-2.4345711E-1,5E-1,-9.957564E-1,3.8218218E-1,-5.3458506E-1,2.102177E0,-4.0455347E-1,6.708267E0,3.1847324E0,1.4499056E0,-2.5148149E0,-8.85041E0],"split_indices":[25,0,0,1,9,0,6,0,0,0,0,0,0,0,0],"split_type":[0,0,0,0,0,0,0,0,0,0,0,0,0,0,0],"sum_hessian":[6.396E3,5.875E3,5.21E2,4.35E3,1.525E3,1.91E2,3.3E2,3.738E3,6.12E2,1.224E3,3.01E2,7.2E1,1.19E2,2.64E2,6.6E1],"tree_param":{"num_deleted":"0","num_feature":"46","num_nodes":"15","size_leaf_vector":"0"}},{"base_weights":[-4.9475157E-3,1.7630638E-1,-5.593134E0,-1.2957846E-1,2.983226E0,-2.7352765E0,-6.625684E1,-3.6401674E-1,4.384678E0,5.1476192E0,-2.562594E1,-5.537912E0,6.2767914E1,1.1472921E2,-1.3435703E2],"categories":[],"categories_nodes":[],"categories_segments":[],"categories_sizes":[],"default_left":[1,1,1,1,1,1,1,0,0,0,0,0,0,0,0],"id":54,"left_children":[1,3,5,7,9,11,13,-1,-1,-1,-1,-1,-1,-1,-1],"loss_changes":[6.4803833E3,5.3210947E3,3.4665785E4,5.9165156E3,3.78421E4,3.5778848E4,1.2634133E5,0E0,0E0,0E0,0E0,0E0,0E0,0E0,0E0],"parents":[2147483647,0,0,1,1,2,2,3,3,4,4,5,5,6,6],"right_children":[2,4,6,8,10,12,14,-1,-1,-1,-1,-1,-1,-1,-1],"split_conditions":[9.027566E-1,5E-1,-9.609618E-1,5E-1,5E-1,-9.8292625E-1,5E-1,-1.8200837E-1,2.192339E0,2.5738096E0,-1.281297E1,-2.768956E0,3.1383957E1,5.7364605E1,-6.717851E1],"split_indices":[1,22,0,15,15,0,26,0,0,0,0,0,0,0,0],"split_type":[0,0,0,0,0,0,0,0,0,0,0,0,0,0,0],"sum_hessian":[6.396E3,6.196E3,2E2,5.588E3,6.08E2,1.92E2,8E0,5.313E3,2.75E2,5.66E2,4.2E1,1.85E2,7E0,2E0,6E0],"tree_param":{"num_deleted":"0","num_feature":"46","num_nodes":"15","size_leaf_vector":"0"}},{"base_weights":[-8.2115934E-4,3.4552656E-2,-1.8825518E1,-4.6311423E-2,2.240779E1,6.584755E0,-2.8027248E1,-1.7187797E-2,-9.267998E1,-5.740717E0,1.03118675E2,1.5052933E1,-1.2556152E0,-4.827899E1,-9.854878E0],"categories":[],"categories_nodes":[],"categories_segments":[],"categories_sizes":[],"default_left":[1,1,1,1,1,1,1,0,0,0,0,0,0,0,0],"id":55,"left_children":[1,3,5,7,9,11,13,-1,-1,-1,-1,-1,-1,-1,-1],"loss_changes":[4.2604214E3,1.1554533E4,2.9903745E3,1.7167387E4,5.2845465E4,2.8447528E2,2.836416E3,0E0,0E0,0E0,0E0,0E0,0E0,0E0,0E0],"parents":[2147483647,0,0,1,1,2,2,3,3,4,4,5,5,6,6],"right_children":[2,4,6,8,10,12,14,-1,-1,-1,-1,-1,-1,-1,-1],"split_conditions":[-4.610831E-2,-5.202217E-1,-9.729385E1,-5.269059E-1,5E-1,-8.068068E-1,-7.810692E1,-8.593898E-3,-4.633999E1,-2.8703585E0,5.1559338E1,7.5264664E0,-6.278076E-1,-2.4139496E1,-4.927439E0],"split_indices":[0,0,2,0,28,6,2,0,0,0,0,0,0,0,0],"split_type":[0,0,0,0,0,0,0,0,0,0,0,0,0,0,0],"sum_hessian":[6.396E3,6.385E3,1.1E1,6.363E3,2.2E1,3E0,8E0,6.362E3,1E0,1.7E1,5E0,1E0,2E0,3E0,5E0],"tree_param":{"num_deleted":"0","num_feature":"46","num_nodes":"15","size_leaf_vector":"0"}},{"base_weights":[-3.5100116E-3,-2.7274424E-1,1.7004106E0,3.899591E-1,-1.7678641E0,1.2412115E0,3.4544514E1,-4.0430844E-1,7.4148555E0,6.2950474E-1,-1.3597644E1,-2.1607075E0,3.6389265E0,5.1333275E1,2.324456E1],"categories":[],"categories_nodes":[],"categories_segments":[],"categories_sizes":[],"default_left":[1,1,1,1,1,1,1,0,0,0,0,0,0,0,0],"id":56,"left_children":[1,3,5,7,9,11,13,-1,-1,-1,-1,-1,-1,-1,-1],"loss_changes":[2.9351116E3,5.4749746E3,1.3123693E4,2.1367465E4,4.8136066E4,7.0390522E3,1.0833271E3,0E0,0E0,0E0,0E0,0E0,0E0,0E0,0E0],"parents":[2147483647,0,0,1,1,2,2,3,3,4,4,5,5,6,6],"right_children":[2,4,6,8,10,12,14,-1,-1,-1,-1,-1,-1,-1,-1],"split_conditions":[5E-1,0E0,-9.532561E-1,-9.3588465E-1,-2.4345711E-1,-9.9710935E-1,5E-1,-2.0215422E-1,3.7074277E0,3.1475237E-1,-6.798822E0,-1.0803537E0,1.8194633E0,2.5666637E1,1.162228E1],"split_indices":[23,3,0,0,1,0,18,0,0,0,0,0,0,0,0],"split_type":[0,0,0,0,0,0,0,0,0,0,0,0,0,0,0],"sum_hessian":[6.396E3,5.524E3,8.72E2,3.828E3,1.696E3,8.61E2,1.1E1,3.44E3,3.88E2,1.411E3,2.85E2,3.56E2,5.05E2,3E0,8E0],"tree_param":{"num_deleted":"0","num_feature":"46","num_nodes":"15","size_leaf_vector":"0"}},{"base_weights":[3.724091E-3,3.247174E-1,-2.34245E0,2.4926066E-1,1.4172299E2,-4.3036294E0,2.2739439E1,-1.2715073E0,1.7278309E0,1.8609369E2,2.6490803E1,5.3621182E0,-1.3535072E1,-1.9269989E1,4.4832657E1],"categories":[],"categories_nodes":[],"categories_segments":[],"categories_sizes":[],"default_left":[1,1,1,1,1,1,1,0,0,0,0,0,0,0,0],"id":57,"left_children":[1,3,5,7,9,11,13,-1,-1,-1,-1,-1,-1,-1,-1],"loss_changes":[4.81838E3,6.0012344E4,3.7974227E4,1.2652608E4,1.040902E4,6.3871168E4,5.2838836E4,0E0,0E0,0E0,0E0,0E0,0E0,0E0,0E0],"parents":[2147483647,0,0,1,1,2,2,3,3,4,4,5,5,6,6],"right_children":[2,4,6,8,10,12,14,-1,-1,-1,-1,-1,-1,-1,-1],"split_conditions":[-9.3108934E-1,-9.312105E-1,5E-1,-4.5204014E-1,-9.311322E-1,-4.5204014E-1,-6.898168E-1,-6.3575363E-1,8.6391544E-1,9.3046844E1,1.3245401E1,2.6810591E0,-6.767536E0,-9.6349945E0,2.2416328E1],"split_indices":[0,0,21,1,0,1,1,0,0,0,0,0,0,0,0],"split_type":[0,0,0,0,0,0,0,0,0,0,0,0,0,0,0],"sum_hessian":[6.396E3,5.627E3,7.69E2,5.625E3,2E0,7.14E2,5.5E1,2.773E3,2.852E3,1E0,1E0,3.49E2,3.65E2,1.9E1,3.6E1],"tree_param":{"num_deleted":"0","num_feature":"46","num_nodes":"15","size_leaf_vector":"0"}},{"base_weights":[1.9872854E-2,1.7051923E-1,-4.07554E0,6.144701E-2,9.620763E1,-7.472592E0,3.3506535E1,1.6521063E-1,-1.8654436E1,5.239243E1,1.7954941E2,3.844592E0,-2.2189869E1,6.9339226E1,1.1428288E0],"categories":[],"categories_nodes":[],"categories_segments":[],"categories_sizes":[],"default_left":[1,1,1,1,1,1,1,0,0,0,0,0,0,0,0],"id":58,"left_children":[1,3,5,7,9,11,13,-1,-1,-1,-1,-1,-1,-1,-1],"loss_changes":[3.9473826E3,6.4635195E4,2.9231074E4,1.1975685E4,1.615443E4,3.489596E4,2.195465E4,0E0,0E0,0E0,0E0,0E0,0E0,0E0,0E0],"parents":[2147483647,0,0,1,1,2,2,3,3,4,4,5,5,6,6],"right_children":[2,4,6,8,10,12,14,-1,-1,-1,-1,-1,-1,-1,-1],"split_conditions":[-8.2623684E-1,-8.286335E-1,5E-1,-8.442044E-1,-1.173774E-1,5.165165E-2,3.0976892E-1,8.260532E-2,-9.327218E0,2.6196215E1,8.9774704E1,1.922296E0,-1.1094934E1,3.4669613E1,5.714144E-1],"split_indices":[0,0,15,0,1,6,3,0,0,0,0,0,0,0,0],"split_type":[0,0,0,0,0,0,0,0,0,0,0,0,0,0,0],"sum_hessian":[6.396E3,6.17E3,2.26E2,6.164E3,6E0,2.08E2,1.8E1,6.131E3,3.3E1,5E0,1E0,1.18E2,9E1,8E0,1E1],"tree_param":{"num_deleted":"0","num_feature":"46","num_nodes":"15","size_leaf_vector":"0"}},{"base_weights":[3.0695383E-2,-2.8176155E-2,1.0150997E1,3.7910137E-2,-5.251369E1,-1.2267269E1,4.0341675E1,-1.1223819E-2,3.4678596E1,2.7485992E1,-1.060107E2,-8.581292E1,8.843594E0,-1.5955078E1,6.738157E1],"categories":[],"categories_nodes":[],"categories_segments":[],"categories_sizes":[],"default_left":[1,1,1,1,1,1,1,0,0,0,0,0,0,0,0],"id":59,"left_children":[1,3,5,7,9,11,13,-1,-1,-1,-1,-1,-1,-1,-1],"loss_changes":[3.8116038E3,2.2065582E4,2.553732E4,1.0815113E4,3.7151758E4,3.4916367E4,2.543121E4,0E0,0E0,0E0,0E0,0E0,0E0,0E0,0E0],"parents":[2147483647,0,0,1,1,2,2,3,3,4,4,5,5,6,6],"right_children":[2,4,6,8,10,12,14,-1,-1,-1,-1,-1,-1,-1,-1],"split_conditions":[-5.6123316E-1,-5.8045894E-1,2.8208208E-1,-6.050869E-1,3.4548244E1,0E0,-2.857143E-1,-5.6119096E-3,1.7339298E1,1.3742996E1,-5.300535E1,-4.290646E1,4.421797E0,-7.977539E0,3.3690784E1],"split_indices":[0,0,6,0,7,3,5,0,0,0,0,0,0,0,0],"split_type":[0,0,0,0,0,0,0,0,0,0,0,0,0,0,0],"sum_hessian":[6.396E3,6.36E3,3.6E1,6.353E3,7E0,2.1E1,1.5E1,6.345E3,8E0,3E0,4E0,4E0,1.7E1,5E0,1E1],"tree_param":{"num_deleted":"0","num_feature":"46","num_nodes":"15","size_leaf_vector":"0"}},{"base_weights":[9.9236965E-3,-2.5291243E0,1.7744336E-1,-1.5450729E0,-2.3108362E1,-2.3684923E-2,2.4965565E0,2.220504E0,-6.1875796E0,5.345751E1,-4.198537E1,1.349973E-1,-2.0253273E1,5.7166724E0,-9.921228E0],"categories":[],"categories_nodes":[],"categories_segments":[],"categories_sizes":[],"default_left":[1,1,1,1,1,1,1,0,0,0,0,0,0,0,0],"id":60,"left_children":[1,3,5,7,9,11,13,-1,-1,-1,-1,-1,-1,-1,-1],"loss_changes":[2.7213516E3,7.983701E3,2.7996277E3,6.6393096E3,2.8260455E4,1.7735193E4,1.9210348E4,0E0,0E0,0E0,0E0,0E0,0E0,0E0,0E0],"parents":[2147483647,0,0,1,1,2,2,3,3,4,4,5,5,6,6],"right_children":[2,4,6,8,10,12,14,-1,-1,-1,-1,-1,-1,-1,-1],"split_conditions":[-8.8388383E-1,-8.1648624E-1,-9.0117204E-1,-9.391391E-1,-9.76977E-1,-9.081166E-1,4.344967E-1,1.110252E0,-3.0937898E0,2.6728756E1,-2.0992685E1,6.749865E-2,-1.01266365E1,2.8583362E0,-4.960614E0],"split_indices":[6,0,0,6,6,0,3,0,0,0,0,0,0,0,0],"split_type":[0,0,0,0,0,0,0,0,0,0,0,0,0,0,0],"sum_hessian":[6.396E3,3.95E2,6.001E3,3.78E2,1.7E1,5.523E3,4.78E2,2.09E2,1.69E2,3E0,1.4E1,5.481E3,4.2E1,3.8E2,9.8E1],"tree_param":{"num_deleted":"0","num_feature":"46","num_nodes":"15","size_leaf_vector":"0"}},{"base_weights":[3.6474057E-3,-9.6754745E-2,6.263337E0,3.8717393E-2,-4.0627575E0,2.0309078E1,-2.531063E0,-3.5409294E-2,6.445987E1,-2.7562908E1,8.509314E-1,2.568922E0,3.884772E1,1.1099606E1,-7.4074526E0],"categories":[],"categories_nodes":[],"categories_segments":[],"categories_sizes":[],"default_left":[1,1,1,1,1,1,1,0,0,0,0,0,0,0,0],"id":61,"left_children":[1,3,5,7,9,11,13,-1,-1,-1,-1,-1,-1,-1,-1],"loss_changes":[4.021033E3,3.3834275E3,1.2527313E4,2.9084021E4,2.4041717E4,1.2726458E4,4.269732E3,0E0,0E0,0E0,0E0,0E0,0E0,0E0,0E0],"parents":[2147483647,0,0,1,1,2,2,3,3,4,4,5,5,6,6],"right_children":[2,4,6,8,10,12,14,-1,-1,-1,-1,-1,-1,-1,-1],"split_conditions":[6.448365E-1,-8.2623684E-1,-2.3752147E-1,-8.286335E-1,-8.177786E-1,-9.359181E-1,-5.7077074E-1,-1.7704647E-2,3.2229935E1,-1.3781454E1,4.254657E-1,1.284461E0,1.942386E1,5.549803E0,-3.7037263E0],"split_indices":[3,0,4,0,4,0,6,0,0,0,0,0,0,0,0],"split_type":[0,0,0,0,0,0,0,0,0,0,0,0,0,0,0],"sum_hessian":[6.396E3,6.296E3,1E2,6.089E3,2.07E2,3.8E1,6.2E1,6.083E3,6E0,3.5E1,1.72E2,2E1,1.8E1,1.6E1,4.6E1],"tree_param":{"num_deleted":"0","num_feature":"46","num_nodes":"15","size_leaf_vector":"0"}},{"base_weights":[8.297017E-3,-8.9959145E-2,3.93975E0,-2.421955E-2,-3.732625E1,-4.445104E-1,3.2145447E1,-7.511839E-2,1.6623655E1,-1.4507558E1,-9.334023E1,1.4118258E0,-6.205656E1,-1.0983777E2,4.4736496E1],"categories":[],"categories_nodes":[],"categories_segments":[],"categories_sizes":[],"default_left":[1,1,1,1,1,1,1,0,0,0,0,0,0,0,0],"id":62,"left_children":[1,3,5,7,9,11,13,-1,-1,-1,-1,-1,-1,-1,-1],"loss_changes":[2.4714482E3,1.5278878E4,1.9305424E4,5.2819805E3,1.2705683E4,1.5642297E4,4.2455832E4,0E0,0E0,0E0,0E0,0E0,0E0,0E0,0E0],"parents":[2147483647,0,0,1,1,2,2,3,3,4,4,5,5,6,6],"right_children":[2,4,6,8,10,12,14,-1,-1,-1,-1,-1,-1,-1,-1],"split_conditions":[-7.842903E-1,-7.896947E-1,-2.4345711E-1,-8.049281E-1,-8.005083E1,5E-1,-4.5475674E-1,-3.7559196E-2,8.311828E0,-7.253779E0,-4.6670116E1,7.059129E-1,-3.102828E1,-5.4918884E1,2.2368248E1],"split_indices":[0,0,1,0,2,43,3,0,0,0,0,0,0,0,0],"split_type":[0,0,0,0,0,0,0,0,0,0,0,0,0,0,0],"sum_hessian":[6.396E3,6.241E3,1.55E2,6.231E3,1E1,1.35E2,2E1,6.213E3,1.8E1,8E0,2E0,1.32E2,3E0,1E0,1.9E1],"tree_param":{"num_deleted":"0","num_feature":"46","num_nodes":"15","size_leaf_vector":"0"}},{"base_weights":[-1.2816217E-2,1.4932622E-1,-3.2297437E0,6.1068315E-2,5.978527E1,-8.064921E0,3.7161278E1,1.318216E-1,-1.5813514E1,8.0868484E1,-5.4440224E1,-7.980408E1,-5.6165423E0,1.2661357E2,3.4720013E0],"categories":[],"categories_nodes":[],"categories_segments":[],"categories_sizes":[],"default_left":[1,1,1,1,1,1,1,0,0,0,0,0,0,0,0],"id":63,"left_children":[1,3,5,7,9,11,13,-1,-1,-1,-1,-1,-1,-1,-1],"loss_changes":[3.3371604E3,3.2055375E4,6.0256117E4,6.834381E3,2.6076664E4,4.785407E4,9.900863E4,0E0,0E0,0E0,0E0,0E0,0E0,0E0,0E0],"parents":[2147483647,0,0,1,1,2,2,3,3,4,4,5,5,6,6],"right_children":[2,4,6,8,10,12,14,-1,-1,-1,-1,-1,-1,-1,-1],"split_conditions":[-8.570868E-1,-8.584182E-1,4.4773575E-2,-8.668847E-1,4.8678732E-1,-8.5572565E-1,-8.2486594E-1,6.59108E-2,-7.906757E0,4.0434242E1,-2.7220112E1,-3.990204E1,-2.8082712E0,6.3306786E1,1.7360007E0],"split_indices":[0,0,1,0,3,0,0,0,0,0,0,0,0,0,0],"split_type":[0,0,0,0,0,0,0,0,0,0,0,0,0,0,0],"sum_hessian":[6.396E3,6.09E3,3.06E2,6.082E3,8E0,2.74E2,3.2E1,6.056E3,2.6E1,7E0,1E0,8E0,2.66E2,8E0,2.4E1],"tree_param":{"num_deleted":"0","num_feature":"46","num_nodes":"15","size_leaf_vector":"0"}},{"base_weights":[-2.0772761E-3,-1.0218221E-1,3.9259527E0,1.7887984E-3,-1.8017014E1,-2.7065212E-1,3.151653E1,-5.608456E-2,3.984418E1,1.9941107E1,-5.7082973E1,-3.9930046E0,2.8594494E1,7.309363E1,1.0012781E1],"categories":[],"categories_nodes":[],"categories_segments":[],"categories_sizes":[],"default_left":[1,1,1,1,1,1,1,0,0,0,0,0,0,0,0],"id":64,"left_children":[1,3,5,7,9,11,13,-1,-1,-1,-1,-1,-1,-1,-1],"loss_changes":[2.5157986E3,1.16209375E4,1.8418621E4,1.4307498E4,5.4521633E4,1.5049207E4,1.8043463E4,0E0,0E0,0E0,0E0,0E0,0E0,0E0,0E0],"parents":[2147483647,0,0,1,1,2,2,3,3,4,4,5,5,6,6],"right_children":[2,4,6,8,10,12,14,-1,-1,-1,-1,-1,-1,-1,-1],"split_conditions":[-7.856027E-1,-8.0910903E-1,5E-1,-8.1110823E-1,2.2882882E-1,7.565566E-1,3.7104916E1,-2.804228E-2,1.992209E1,9.970553E0,-2.8541487E1,-1.9965023E0,1.4297247E1,3.6546814E1,5.0063906E0],"split_indices":[0,0,21,0,6,6,7,0,0,0,0,0,0,0,0],"split_type":[0,0,0,0,0,0,0,0,0,0,0,0,0,0,0],"sum_hessian":[6.396E3,6.238E3,1.58E2,6.203E3,3.5E1,1.38E2,2E1,6.195E3,8E0,1.8E1,1.7E1,1.23E2,1.5E1,6E0,1.4E1],"tree_param":{"num_deleted":"0","num_feature":"46","num_nodes":"15","size_leaf_vector":"0"}},{"base_weights":[7.586926E-3,3.967854E-2,-1.8626661E1,1.8533671E-2,4.5029785E1,6.344342E0,-3.3802143E1,-1.7927326E-1,1.8949082E0,1.68462E1,-6.2722983E0,-4.9795753E1,4.1212564E0],"categories":[],"categories_nodes":[],"categories_segments":[],"categories_sizes":[],"default_left":[1,1,1,1,0,1,1,0,0,0,0,0,0],"id":65,"left_children":[1,3,5,7,-1,9,11,-1,-1,-1,-1,-1,-1],"loss_changes":[3.8261655E3,6.0751826E3,4.3828687E3,2.3701958E3,0E0,7.681553E2,4.450945E3,0E0,0E0,0E0,0E0,0E0,0E0],"parents":[2147483647,0,0,1,1,2,2,3,3,5,5,6,6],"right_children":[2,4,6,8,-1,10,12,-1,-1,-1,-1,-1,-1],"split_conditions":[7.13979E-2,-1.5725501E-1,-5.6776774E-1,5E-1,2.2514893E1,4.344967E-1,5.4998577E-1,-8.963663E-2,9.474541E-1,8.4231E0,-3.1361492E0,-2.4897877E1,2.0606282E0],"split_indices":[0,0,6,22,0,3,0,0,0,0,0,0,0],"split_type":[0,0,0,0,0,0,0,0,0,0,0,0,0],"sum_hessian":[6.396E3,6.386E3,1E1,6.384E3,2E0,4E0,6E0,5.776E3,6.08E2,2E0,2E0,4E0,2E0],"tree_param":{"num_deleted":"0","num_feature":"46","num_nodes":"13","size_leaf_vector":"0"}},{"base_weights":[4.7035753E-3,3.8650915E-2,-9.834066E0,-2.401167E-1,1.291031E0,7.752063E-1,-2.0513811E1,-7.50554E-2,-1.3960293E1,6.1476855E0,-1.769178E0,5.389035E0,-2.2053375E0,-5.27469E1,-7.4901376E0],"categories":[],"categories_nodes":[],"categories_segments":[],"categories_sizes":[],"default_left":[1,1,1,1,1,1,1,0,0,0,0,0,0,0,0],"id":66,"left_children":[1,3,5,7,9,11,13,-1,-1,-1,-1,-1,-1,-1,-1],"loss_changes":[2.1369783E3,2.226318E3,2.5085977E3,1.1811472E4,1.7266098E4,1.7690527E2,4.222645E3,0E0,0E0,0E0,0E0,0E0,0E0,0E0,0E0],"parents":[2147483647,0,0,1,1,2,2,3,3,4,4,5,5,6,6],"right_children":[2,4,6,8,10,12,14,-1,-1,-1,-1,-1,-1,-1,-1],"split_conditions":[1.5E0,5E-1,-9.2865294E-1,-7.41073E-1,-2.152152E-1,-2.6698554E-1,-9.0303576E-1,-3.75277E-2,-6.9801464E0,3.0738428E0,-8.84589E-1,2.6945176E0,-1.1026688E0,-2.637345E1,-3.7450688E0],"split_indices":[16,11,0,0,6,4,0,0,0,0,0,0,0,0,0],"split_type":[0,0,0,0,0,0,0,0,0,0,0,0,0,0,0],"sum_hessian":[6.396E3,6.375E3,2.1E1,5.215E3,1.16E3,1.1E1,1E1,5.154E3,6.1E1,4.48E2,7.12E2,4E0,7E0,2E0,8E0],"tree_param":{"num_deleted":"0","num_feature":"46","num_nodes":"15","size_leaf_vector":"0"}},{"base_weights":[-2.8622744E-3,-1.546137E-1,5.122063E0,-7.937346E-2,-4.682573E1,8.288746E0,-2.2814331E1,3.62929E-3,-8.580298E0,-1.0757833E1,-9.823811E1,-1.1141613E2,9.68948E0,-6.16701E1,-1.3704388E-1],"categories":[],"categories_nodes":[],"categories_segments":[],"categories_sizes":[],"default_left":[1,1,1,1,1,1,1,0,0,0,0,0,0,0,0],"id":67,"left_children":[1,3,5,7,9,11,13,-1,-1,-1,-1,-1,-1,-1,-1],"loss_changes":[4.9758335E3,2.1817031E4,1.6466793E4,4.3782803E3,1.7486535E4,2.891355E4,1.6733273E4,0E0,0E0,0E0,0E0,0E0,0E0,0E0,0E0],"parents":[2147483647,0,0,1,1,2,2,3,3,4,4,5,5,6,6],"right_children":[2,4,6,8,10,12,14,-1,-1,-1,-1,-1,-1,-1,-1],"split_conditions":[-8.049281E-1,-8.08463E-1,5E-1,-8.406951E-1,1.6699179E-1,2.9454826E1,-3.7347722E-1,1.814645E-3,-4.290149E0,-5.3789163E0,-4.9119057E1,-5.5708065E1,4.84474E0,-3.083505E1,-6.852194E-2],"split_indices":[0,0,24,0,3,7,4,0,0,0,0,0,0,0,0],"split_type":[0,0,0,0,0,0,0,0,0,0,0,0,0,0,0],"sum_hessian":[6.396E3,6.213E3,1.83E2,6.204E3,9E0,1.65E2,1.8E1,6.145E3,5.9E1,6E0,3E0,1E0,1.64E2,6E0,1.2E1],"tree_param":{"num_deleted":"0","num_feature":"46","num_nodes":"15","size_leaf_vector":"0"}},{"base_weights":[-2.3402693E-2,-5.9556925E-1,8.428374E-1,-4.358519E-1,-1.661888E1,5.680425E0,-1.7660825E-1,-5.598764E-2,-3.8805418E0,-3.8971653E1,-3.43657E0,1.2270831E0,2.8610464E1,-8.260715E0,3.3844435E-1],"categories":[],"categories_nodes":[],"categories_segments":[],"categories_sizes":[],"default_left":[1,1,1,1,1,1,1,0,0,0,0,0,0,0,0],"id":68,"left_children":[1,3,5,7,9,11,13,-1,-1,-1,-1,-1,-1,-1,-1],"loss_changes":[3.17107E3,9.853355E3,1.2552072E4,4.993074E3,1.1063195E4,4.520198E4,8.759142E3,0E0,0E0,0E0,0E0,0E0,0E0,0E0,0E0],"parents":[2147483647,0,0,1,1,2,2,3,3,4,4,5,5,6,6],"right_children":[2,4,6,8,10,12,14,-1,-1,-1,-1,-1,-1,-1,-1],"split_conditions":[1.5955956E-1,1.5115115E-1,2.982983E-1,5E-1,1.5275276E-1,-9.50526E-1,3.4234232E-1,-2.799382E-2,-1.9402709E0,-1.9485826E1,-1.718285E0,6.1354154E-1,1.4305232E1,-4.1303573E0,1.6922218E-1],"split_indices":[6,6,6,25,6,0,6,0,0,0,0,0,0,0,0],"split_type":[0,0,0,0,0,0,0,0,0,0,0,0,0,0,0],"sum_hessian":[6.396E3,3.852E3,2.544E3,3.815E3,3.7E1,4.42E2,2.102E3,3.437E3,3.78E2,1.3E1,2.4E1,3.71E2,7.1E1,1.25E2,1.977E3],"tree_param":{"num_deleted":"0","num_feature":"46","num_nodes":"15","size_leaf_vector":"0"}},{"base_weights":[-1.3610822E-2,3.0308893E-1,-1.2531564E0,-2.6036596E-1,4.044921E0,1.1332082E0,-1.2264119E1,-3.0048048E0,5.4996544E-1,9.204793E0,-5.1140428E0,-5.445018E0,3.0396092E0,-4.821429E0,-2.8408863E1],"categories":[],"categories_nodes":[],"categories_segments":[],"categories_sizes":[],"default_left":[1,1,1,1,1,1,1,0,0,0,0,0,0,0,0],"id":69,"left_children":[1,3,5,7,9,11,13,-1,-1,-1,-1,-1,-1,-1,-1],"loss_changes":[2.5116104E3,1.0745223E4,3.4225477E4,9.853552E3,3.156888E4,1.344768E4,2.7740223E4,0E0,0E0,0E0,0E0,0E0,0E0,0E0,0E0],"parents":[2147483647,0,0,1,1,2,2,3,3,4,4,5,5,6,6],"right_children":[2,4,6,8,10,12,14,-1,-1,-1,-1,-1,-1,-1,-1],"split_conditions":[-9.610772E-1,-2.4345711E-1,-2.4345711E-1,-9.9807024E-1,-9.948047E-1,-9.47428E-1,5E-1,-1.5024024E0,2.7498272E-1,4.6023965E0,-2.5570214E0,-2.722509E0,1.5198046E0,-2.4107144E0,-1.4204432E1],"split_indices":[0,1,1,0,0,0,27,0,0,0,0,0,0,0,0],"split_type":[0,0,0,0,0,0,0,0,0,0,0,0,0,0,0],"sum_hessian":[6.396E3,5.095E3,1.301E3,4.429E3,6.66E2,1.07E3,2.31E2,1.009E3,3.42E3,4.26E2,2.4E2,2.4E2,8.3E2,1.59E2,7.2E1],"tree_param":{"num_deleted":"0","num_feature":"46","num_nodes":"15","size_leaf_vector":"0"}},{"base_weights":[-9.462858E-3,3.2269835E-1,-4.267276E0,5.0350297E-3,4.3291793E0,8.695777E-1,-2.5275837E1,1.4480747E-1,-9.588018E0,1.2417686E1,-1.0562879E1,2.4689415E0,-6.212676E0,-4.1480446E1,4.7701897E1],"categories":[],"categories_nodes":[],"categories_segments":[],"categories_sizes":[],"default_left":[1,1,1,1,1,1,1,0,0,0,0,0,0,0,0],"id":70,"left_children":[1,3,5,7,9,11,13,-1,-1,-1,-1,-1,-1,-1,-1],"loss_changes":[9.048528E3,7.553524E3,4.998797E4,7.376033E3,5.2649336E4,4.2403467E3,1.0959308E5,0E0,0E0,0E0,0E0,0E0,0E0,0E0,0E0],"parents":[2147483647,0,0,1,1,2,2,3,3,4,4,5,5,6,6],"right_children":[2,4,6,8,10,12,14,-1,-1,-1,-1,-1,-1,-1,-1],"split_conditions":[7.0237255E-1,-2.4345711E-1,-9.941916E-1,-7.139549E-1,-9.4624907E-1,-9.978352E-1,-9.326871E-1,7.240374E-2,-4.794009E0,6.208843E0,-5.2814393E0,1.2344707E0,-3.106338E0,-2.0740223E1,2.3850948E1],"split_indices":[1,1,0,0,0,0,0,0,0,0,0,0,0,0,0],"split_type":[0,0,0,0,0,0,0,0,0,0,0,0,0,0,0],"sum_hessian":[6.396E3,5.934E3,4.62E2,5.499E3,4.35E2,3.72E2,9E1,5.421E3,7.8E1,2.82E2,1.53E2,3.04E2,6.8E1,7.4E1,1.6E1],"tree_param":{"num_deleted":"0","num_feature":"46","num_nodes":"15","size_leaf_vector":"0"}},{"base_weights":[-5.1308377E-3,2.4987796E-1,-2.7492785E0,1.6590117E-3,4.09482E0,1.9206014E0,-2.632757E1,-3.425367E-1,3.020552E0,9.924788E0,-6.19586E0,1.4699251E1,-1.7060824E-1,-1.2970235E2,-2.0011274E1],"categories":[],"categories_nodes":[],"categories_segments":[],"categories_sizes":[],"default_left":[1,1,1,1,1,1,1,0,0,0,0,0,0,0,0],"id":71,"left_children":[1,3,5,7,9,11,13,-1,-1,-1,-1,-1,-1,-1,-1],"loss_changes":[4.4771914E3,5.5869775E3,5.9949203E4,5.7160293E3,2.1359484E4,1.2161397E4,5.616959E4,0E0,0E0,0E0,0E0,0E0,0E0,0E0,0E0],"parents":[2147483647,0,0,1,1,2,2,3,3,4,4,5,5,6,6],"right_children":[2,4,6,8,10,12,14,-1,-1,-1,-1,-1,-1,-1,-1],"split_conditions":[4.894328E-1,-2.4345711E-1,-9.908786E-1,-9.2251885E-1,-9.354657E-1,5E-1,-6.385414E-1,-1.7126834E-1,1.510276E0,4.962394E0,-3.09793E0,7.3496256E0,-8.530412E-2,-6.485117E1,-1.0005637E1],"split_indices":[1,1,0,0,0,9,4,0,0,0,0,0,0,0,0],"split_type":[0,0,0,0,0,0,0,0,0,0,0,0,0,0,0],"sum_hessian":[6.396E3,5.853E3,5.43E2,5.499E3,3.54E2,4.54E2,8.9E1,4.937E3,5.62E2,2.26E2,1.28E2,6.3E1,3.91E2,4E0,8.5E1],"tree_param":{"num_deleted":"0","num_feature":"46","num_nodes":"15","size_leaf_vector":"0"}},{"base_weights":[-1.2630948E-2,3.4472477E-1,-1.322926E0,1.22452535E-1,1.2536232E1,-3.428148E0,5.408817E0,1.8694542E-1,-1.5913947E2,-8.744851E0,2.4428291E1,-1.9823262E-1,-1.24267235E1,2.6427903E0,2.1431288E1],"categories":[],"categories_nodes":[],"categories_segments":[],"categories_sizes":[],"default_left":[1,1,1,1,1,1,1,0,0,0,0,0,0,0,0],"id":72,"left_children":[1,3,5,7,9,11,13,-1,-1,-1,-1,-1,-1,-1,-1],"loss_changes":[2.9957969E3,1.3620799E4,1.9448098E4,5.074924E4,2.2990453E4,3.0370084E4,1.4435538E4,0E0,0E0,0E0,0E0,0E0,0E0,0E0,0E0],"parents":[2147483647,0,0,1,1,2,2,3,3,4,4,5,5,6,6],"right_children":[2,4,6,8,10,12,14,-1,-1,-1,-1,-1,-1,-1,-1],"split_conditions":[5E-1,-7.676947E-1,5.881882E-1,-7.690203E-1,0E0,1.7857859E-1,-8.985811E-1,9.347271E-2,-7.956973E1,-4.3724256E0,1.2214146E1,-9.911631E-2,-6.2133617E0,1.3213952E0,1.0715644E1],"split_indices":[8,0,6,0,3,6,0,0,0,0,0,0,0,0,0],"split_type":[0,0,0,0,0,0,0,0,0,0,0,0,0,0,0],"sum_hessian":[6.396E3,5.026E3,1.37E3,4.937E3,8.9E1,1.044E3,3.26E2,4.936E3,1E0,3.2E1,5.7E1,7.69E2,2.75E2,2.79E2,4.7E1],"tree_param":{"num_deleted":"0","num_feature":"46","num_nodes":"15","size_leaf_vector":"0"}},{"base_weights":[-1.6618885E-2,1.5641743E-1,-3.4733193E0,1.02687754E-1,2.9854706E1,-7.3400636E0,2.8620453E1,4.597621E-1,-2.648311E0,-6.9502006E0,7.541064E1,-1.149896E2,-6.1212864E0,6.021493E1,-1.8558832E1],"categories":[],"categories_nodes":[],"categories_segments":[],"categories_sizes":[],"default_left":[1,1,1,1,1,1,1,0,0,0,0,0,0,0,0],"id":73,"left_children":[1,3,5,7,9,11,13,-1,-1,-1,-1,-1,-1,-1,-1],"loss_changes":[3.8268113E3,9.719408E3,3.8060094E4,5.976615E3,1.8967617E4,3.511394E4,5.0307484E4,0E0,0E0,0E0,0E0,0E0,0E0,0E0,0E0],"parents":[2147483647,0,0,1,1,2,2,3,3,4,4,5,5,6,6],"right_children":[2,4,6,8,10,12,14,-1,-1,-1,-1,-1,-1,-1,-1],"split_conditions":[-8.5682964E-1,-8.584182E-1,4.4773575E-2,4.4773575E-2,1.6396397E-1,-8.5641336E-1,-7.4291426E-1,2.2988105E-1,-1.3241554E0,-3.4751003E0,3.770532E1,-5.74948E1,-3.0606432E0,3.0107466E1,-9.279416E0],"split_indices":[0,0,1,1,6,0,0,0,0,0,0,0,0,0,0],"split_type":[0,0,0,0,0,0,0,0,0,0,0,0,0,0,0],"sum_hessian":[6.396E3,6.092E3,3.04E2,6.082E3,1E1,2.72E2,3.2E1,5.384E3,6.98E2,6E0,4E0,2E0,2.7E2,1.9E1,1.3E1],"tree_param":{"num_deleted":"0","num_feature":"46","num_nodes":"15","size_leaf_vector":"0"}},{"base_weights":[-9.3398485E-3,2.1805222E-1,-2.277394E0,3.6264032E-1,-4.961046E0,-3.4058647E1,-1.6633081E0,-2.7772254E-1,1.5634618E0,-2.4452265E1,-2.4376209E0,5.085056E0,-6.752591E1,1.3528125E0,-6.3685713E0],"categories":[],"categories_nodes":[],"categories_segments":[],"categories_sizes":[],"default_left":[1,1,1,1,1,1,1,0,0,0,0,0,0,0,0],"id":74,"left_children":[1,3,5,7,9,11,13,-1,-1,-1,-1,-1,-1,-1,-1],"loss_changes":[3.2996692E3,4.3562803E3,1.1321423E4,4.3512183E3,7.7115674E3,1.4753731E4,8.1404253E3,0E0,0E0,0E0,0E0,0E0,0E0,0E0,0E0],"parents":[2147483647,0,0,1,1,2,2,3,3,4,4,5,5,6,6],"right_children":[2,4,6,8,10,12,14,-1,-1,-1,-1,-1,-1,-1,-1],"split_conditions":[5E-1,9.421421E-1,-9.47948E-1,2.1541542E-1,9.4514513E-1,-9.917918E-1,4.059217E1,-1.3886127E-1,7.817309E-1,-1.2226132E1,-1.2188104E0,2.542528E0,-3.3762955E1,6.7640626E-1,-3.1842856E0],"split_indices":[24,6,6,6,6,6,7,0,0,0,0,0,0,0,0],"split_type":[0,0,0,0,0,0,0,0,0,0,0,0,0,0,0],"sum_hessian":[6.396E3,5.814E3,5.82E2,5.657E3,1.57E2,1E1,5.72E2,3.69E3,1.967E3,1.7E1,1.4E2,5E0,5E0,3.49E2,2.23E2],"tree_param":{"num_deleted":"0","num_feature":"46","num_nodes":"15","size_leaf_vector":"0"}},{"base_weights":[-1.1943974E-2,2.602333E-1,-1.2281243E0,-4.730467E-1,1.3194082E0,2.1613277E-1,-9.60943E0,-3.974056E-1,-2.373076E1,2.841029E-1,6.3174376E0,-1.7074274E0,1.3748547E0,-3.0447386E1,-3.6727507E0],"categories":[],"categories_nodes":[],"categories_segments":[],"categories_sizes":[],"default_left":[1,1,1,1,1,1,1,0,0,0,0,0,0,0,0],"id":75,"left_children":[1,3,5,7,9,11,13,-1,-1,-1,-1,-1,-1,-1,-1],"loss_changes":[2.117833E3,4.061064E3,1.4164646E4,5.426617E3,1.1066431E4,2.22899E3,2.1165994E4,0E0,0E0,0E0,0E0,0E0,0E0,0E0,0E0],"parents":[2147483647,0,0,1,1,2,2,3,3,4,4,5,5,6,6],"right_children":[2,4,6,8,10,12,14,-1,-1,-1,-1,-1,-1,-1,-1],"split_conditions":[5.714286E-1,-8.493619E1,-9.4918275E-1,-4.4696987E-1,-9.5054686E-1,-4.5475674E-1,-6.326139E-1,-1.987028E-1,-1.186538E1,1.4205144E-1,3.1587188E0,-8.537137E-1,6.8742734E-1,-1.5223693E1,-1.8363754E0],"split_indices":[5,2,0,0,0,3,4,0,0,0,0,0,0,0,0],"split_type":[0,0,0,0,0,0,0,0,0,0,0,0,0,0,0],"sum_hessian":[6.396E3,5.227E3,1.169E3,3.089E3,2.138E3,9.98E2,1.71E2,3.08E3,9E0,1.772E3,3.66E2,3.75E2,6.23E2,3.7E1,1.34E2],"tree_param":{"num_deleted":"0","num_feature":"46","num_nodes":"15","size_leaf_vector":"0"}},{"base_weights":[-1.0034819E-2,-5.591811E-2,8.578532E0,-1.2977422E-2,-2.4854937E1,-2.48116E0,5.1591797E1,-4.8284598E-2,2.4883947E1,-5.0588066E1,6.0629436E1,-2.5751015E1,9.896719E0,8.173453E1,8.551117E0],"categories":[],"categories_nodes":[],"categories_segments":[],"categories_sizes":[],"default_left":[1,1,1,1,1,1,1,0,0,0,0,0,0,0,0],"id":76,"left_children":[1,3,5,7,9,11,13,-1,-1,-1,-1,-1,-1,-1,-1],"loss_changes":[2.5213564E3,6.7766167E3,1.6302266E4,5.5866216E3,2.726471E4,8.31973E3,8.382625E3,0E0,0E0,0E0,0E0,0E0,0E0,0E0,0E0],"parents":[2147483647,0,0,1,1,2,2,3,3,4,4,5,5,6,6],"right_children":[2,4,6,8,10,12,14,-1,-1,-1,-1,-1,-1,-1,-1],"split_conditions":[-5.202217E-1,-5.8045894E-1,5E-1,-6.050869E-1,-1.173774E-1,5E-1,-4.306236E-1,-2.4142299E-2,1.2441974E1,-2.5294033E1,3.0314718E1,-1.2875507E1,4.9483595E0,4.0867264E1,4.2755585E0],"split_indices":[0,0,28,0,1,26,0,0,0,0,0,0,0,0,0],"split_type":[0,0,0,0,0,0,0,0,0,0,0,0,0,0,0],"sum_hessian":[6.396E3,6.363E3,3.3E1,6.353E3,1E1,2.7E1,6E0,6.345E3,8E0,8E0,2E0,9E0,1.8E1,3E0,3E0],"tree_param":{"num_deleted":"0","num_feature":"46","num_nodes":"15","size_leaf_vector":"0"}},{"base_weights":[3.5265835E-3,1.7072506E-1,-2.034923E0,-1.01271026E-1,2.2030473E0,-1.367457E0,-2.8230255E1,1.8617003E-1,-5.934151E0,1.901116E1,-1.1450561E0,-1.8892224E0,3.3711636E1,-9.101707E0,-1.1932214E2],"categories":[],"categories_nodes":[],"categories_segments":[],"categories_sizes":[],"default_left":[1,1,1,1,1,1,1,0,0,0,0,0,0,0,0],"id":77,"left_children":[1,3,5,7,9,11,13,-1,-1,-1,-1,-1,-1,-1,-1],"loss_changes":[2.1806094E3,3.2688328E3,8.441376E3,8.746299E3,3.930193E4,8.739337E3,1.9823434E4,0E0,0E0,0E0,0E0,0E0,0E0,0E0,0E0],"parents":[2147483647,0,0,1,1,2,2,3,3,4,4,5,5,6,6],"right_children":[2,4,6,8,10,12,14,-1,-1,-1,-1,-1,-1,-1,-1],"split_conditions":[5E-1,5E-1,5E-1,-8.737905E-1,5E-1,-8.057903E-1,-8.534951E-1,9.308501E-2,-2.9670756E0,9.50558E0,-5.7252806E-1,-9.446112E-1,1.6855818E1,-4.5508537E0,-5.966107E1],"split_indices":[19,11,14,0,24,0,0,0,0,0,0,0,0,0,0],"split_type":[0,0,0,0,0,0,0,0,0,0,0,0,0,0,0],"sum_hessian":[6.396E3,5.912E3,4.84E2,5.215E3,6.97E2,4.73E2,1.1E1,4.971E3,2.44E2,1.15E2,5.82E2,4.67E2,6E0,1E1,1E0],"tree_param":{"num_deleted":"0","num_feature":"46","num_nodes":"15","size_leaf_vector":"0"}},{"base_weights":[-4.83997E-3,1.6499879E-2,-1.7049438E1,-2.6870133E-2,9.211838E0,-2.2280191E1,-9.0478516E-1,1.7454265E-2,-2.3479624E1,1.8999104E1,-1.5736126E1,-3.1370789E1,-2.732666E0,-5.053711E-2,-1.3066406E0],"categories":[],"categories_nodes":[],"categories_segments":[],"categories_sizes":[],"default_left":[1,1,1,1,1,1,1,0,0,0,0,0,0,0,0],"id":78,"left_children":[1,3,5,7,9,11,13,-1,-1,-1,-1,-1,-1,-1,-1],"loss_changes":[2.3270566E3,2.5485916E3,6.5543066E2,6.612855E3,7.6241426E3,9.804663E2,9.638188E-1,0E0,0E0,0E0,0E0,0E0,0E0,0E0,0E0],"parents":[2147483647,0,0,1,1,2,2,3,3,4,4,5,5,6,6],"right_children":[2,4,6,8,10,12,14,-1,-1,-1,-1,-1,-1,-1,-1],"split_conditions":[1.8480796E-1,-5.6123316E-1,5.4998577E-1,-5.9977245E-1,5E-1,2.3326366E-1,7.9999363E-1,8.727132E-3,-1.1739812E1,9.499552E0,-7.868063E0,-1.5685394E1,-1.366333E0,-2.5268555E-2,-6.533203E-1],"split_indices":[0,0,0,0,27,3,0,0,0,0,0,0,0,0,0],"split_type":[0,0,0,0,0,0,0,0,0,0,0,0,0,0,0],"sum_hessian":[6.396E3,6.389E3,7E0,6.36E3,2.9E1,5E0,2E0,6.349E3,1.1E1,2.1E1,8E0,3E0,2E0,1E0,1E0],"tree_param":{"num_deleted":"0","num_feature":"46","num_nodes":"15","size_leaf_vector":"0"}},{"base_weights":[-6.7706555E-3,-1.2634468E-1,2.6157393E0,1.5435237E-1,-1.9102386E0,1.8240786E0,5.6586395E1,7.603512E-2,1.343299E1,9.327173E0,-3.9855635E0,-2.9570498E0,8.44423E0,9.4763756E1,-2.897284E1],"categories":[],"categories_nodes":[],"categories_segments":[],"categories_sizes":[],"default_left":[1,1,1,1,1,1,1,0,0,0,0,0,0,0,0],"id":79,"left_children":[1,3,5,7,9,11,13,-1,-1,-1,-1,-1,-1,-1,-1],"loss_changes":[2.006328E3,3.064285E3,1.1817461E4,5.4982153E3,1.944048E4,8.760865E3,1.5811279E4,0E0,0E0,0E0,0E0,0E0,0E0,0E0,0E0],"parents":[2147483647,0,0,1,1,2,2,3,3,4,4,5,5,6,6],"right_children":[2,4,6,8,10,12,14,-1,-1,-1,-1,-1,-1,-1,-1],"split_conditions":[5E-1,-9.3678695E-1,-7.580586E-1,-9.400882E-1,-7.4542147E-1,8.5685685E-2,-6.835525E-1,3.801756E-2,6.716495E0,4.6635866E0,-1.9927818E0,-1.4785249E0,4.222115E0,4.7381878E1,-1.448642E1],"split_indices":[14,0,0,0,4,6,0,0,0,0,0,0,0,0,0],"split_type":[0,0,0,0,0,0,0,0,0,0,0,0,0,0,0],"sum_hessian":[6.396E3,6.118E3,2.78E2,5.287E3,8.31E2,2.75E2,3E0,5.257E3,3E1,1.29E2,7.02E2,1.6E2,1.15E2,2E0,1E0],"tree_param":{"num_deleted":"0","num_feature":"46","num_nodes":"15","size_leaf_vector":"0"}},{"base_weights":[3.6592155E-3,-4.747288E-2,4.5601254E0,1.5403411E0,-1.9770412E-1,1.1255391E0,2.3191912E1,8.4379905E-1,4.8364388E1,-1.02188855E-1,-5.514655E0,2.5445502E0,-2.715686E1,1.4346431E0,3.5419685E1],"categories":[],"categories_nodes":[],"categories_segments":[],"categories_sizes":[],"default_left":[1,1,1,1,1,1,1,0,0,0,0,0,0,0,0],"id":80,"left_children":[1,3,5,7,9,11,13,-1,-1,-1,-1,-1,-1,-1,-1],"loss_changes":[1.4906002E3,1.5095425E3,4.517363E3,1.7799553E4,2.9353171E3,2.5172175E3,2.8756587E3,0E0,0E0,0E0,0E0,0E0,0E0,0E0,0E0],"parents":[2147483647,0,0,1,1,2,2,3,3,4,4,5,5,6,6],"right_children":[2,4,6,8,10,12,14,-1,-1,-1,-1,-1,-1,-1,-1],"split_conditions":[5E-1,-5.714286E-1,5E-1,-7.161788E-1,-7.4291426E-1,-8.5468125E-1,-9.929139E-1,4.2189953E-1,2.4182194E1,-5.1094428E-2,-2.7573276E0,1.2722751E0,-1.357843E1,7.173216E-1,1.7709843E1],"split_indices":[40,5,37,0,0,0,0,0,0,0,0,0,0,0,0],"split_type":[0,0,0,0,0,0,0,0,0,0,0,0,0,0,0],"sum_hessian":[6.396E3,6.326E3,7E1,5.46E2,5.78E3,6E1,1E1,5.39E2,7E0,5.679E3,1.01E2,5.8E1,2E0,4E0,6E0],"tree_param":{"num_deleted":"0","num_feature":"46","num_nodes":"15","size_leaf_vector":"0"}},{"base_weights":[6.1934865E-3,-1.5478384E-1,1.3642821E0,5.650272E-2,-1.3523448E1,2.714268E0,-2.8941065E1,-4.3998078E-2,4.038918E1,-1.7037712E1,9.289802E1,1.2816317E0,1.4379265E1,-4.6335224E1,3.2345608E1],"categories":[],"categories_nodes":[],"categories_segments":[],"categories_sizes":[],"default_left":[1,1,1,1,1,1,1,0,0,0,0,0,0,0,0],"id":81,"left_children":[1,3,5,7,9,11,13,-1,-1,-1,-1,-1,-1,-1,-1],"loss_changes":[1.3987329E3,1.6157585E4,2.7816748E4,2.2830896E4,3.486816E4,1.0844176E4,3.2413613E4,0E0,0E0,0E0,0E0,0E0,0E0,0E0,0E0],"parents":[2147483647,0,0,1,1,2,2,3,3,4,4,5,5,6,6],"right_children":[2,4,6,8,10,12,14,-1,-1,-1,-1,-1,-1,-1,-1],"split_conditions":[-9.2251885E-1,-9.308214E-1,2.0457955E-1,-9.314916E-1,5.9257334E-1,5E-1,-8.026753E1,-2.1999039E-2,2.019459E1,-8.518856E0,4.644901E1,6.4081585E-1,7.1896324E0,-2.3167612E1,1.6172804E1],"split_indices":[0,0,1,0,1,15,2,0,0,0,0,0,0,0,0],"split_type":[0,0,0,0,0,0,0,0,0,0,0,0,0,0,0],"sum_hessian":[6.396E3,5.719E3,6.77E2,5.631E3,8.8E1,6.49E2,2.8E1,5.618E3,1.3E1,8.6E1,2E0,5.79E2,7E1,2.2E1,6E0],"tree_param":{"num_deleted":"0","num_feature":"46","num_nodes":"15","size_leaf_vector":"0"}},{"base_weights":[1.2310139E-2,-2.0720315E0,1.2638682E-1,-1.1998128E0,-4.23965E1,2.5635707E-1,-2.3125548E0,-1.9148314E0,3.1658157E1,7.567878E0,-5.198521E1,6.3791496E-1,-1.221993E0,-1.2779858E0,-5.400043E1],"categories":[],"categories_nodes":[],"categories_segments":[],"categories_sizes":[],"default_left":[1,1,1,1,1,1,1,0,0,0,0,0,0,0,0],"id":82,"left_children":[1,3,5,7,9,11,13,-1,-1,-1,-1,-1,-1,-1,-1],"loss_changes":[1.5213071E3,1.1626156E4,1.9234534E3,7.719685E3,3.7470762E3,3.249858E3,1.6347711E4,0E0,0E0,0E0,0E0,0E0,0E0,0E0,0E0],"parents":[2147483647,0,0,1,1,2,2,3,3,4,4,5,5,6,6],"right_children":[2,4,6,8,10,12,14,-1,-1,-1,-1,-1,-1,-1,-1],"split_conditions":[-9.0930927E-1,-9.1191196E-1,5E-1,5E-1,-9.867591E-1,5.7217216E-1,2.4597569E-1,-9.574157E-1,1.5829079E1,3.783939E0,-2.5992605E1,3.1895748E-1,-6.109965E-1,-6.389929E-1,-2.7000216E1],"split_indices":[6,6,15,15,0,6,1,0,0,0,0,0,0,0,0],"split_type":[0,0,0,0,0,0,0,0,0,0,0,0,0,0,0],"sum_hessian":[6.396E3,3.31E2,6.065E3,3.25E2,6E0,5.759E3,3.06E2,3.19E2,6E0,1E0,5E0,4.578E3,1.181E3,3.01E2,5E0],"tree_param":{"num_deleted":"0","num_feature":"46","num_nodes":"15","size_leaf_vector":"0"}},{"base_weights":[6.416619E-4,-9.605111E-1,2.613158E-1,-4.3390074E-1,-6.84809E0,5.0810226E-3,2.108873E0,-7.875331E-1,1.8527357E1,-7.9930013E-1,-6.2314316E1,2.772588E-1,-9.199712E0,1.0920463E0,1.6268211E1],"categories":[],"categories_nodes":[],"categories_segments":[],"categories_sizes":[],"default_left":[1,1,1,1,1,1,1,0,0,0,0,0,0,0,0],"id":83,"left_children":[1,3,5,7,9,11,13,-1,-1,-1,-1,-1,-1,-1,-1],"loss_changes":[1.6030043E3,4.2291562E3,2.3826538E3,8.423055E3,3.7526586E4,1.1078658E4,8.80796E3,0E0,0E0,0E0,0E0,0E0,0E0,0E0,0E0],"parents":[2147483647,0,0,1,1,2,2,3,3,4,4,5,5,6,6],"right_children":[2,4,6,8,10,12,14,-1,-1,-1,-1,-1,-1,-1,-1],"split_conditions":[-6.3373804E-1,-8.963957E-1,7.1931934E-1,-9.1435546E-1,-6.385414E-1,6.716716E-1,-8.929697E-1,-3.9376655E-1,9.263679E0,-3.9965007E-1,-3.1157158E1,1.386294E-1,-4.599856E0,5.4602313E-1,8.134106E0],"split_indices":[4,0,6,0,4,6,0,0,0,0,0,0,0,0,0],"split_type":[0,0,0,0,0,0,0,0,0,0,0,0,0,0,0],"sum_hessian":[6.396E3,1.364E3,5.032E3,1.253E3,1.11E2,4.42E3,6.12E2,1.231E3,2.2E1,1.01E2,1E1,4.294E3,1.26E2,5.72E2,4E1],"tree_param":{"num_deleted":"0","num_feature":"46","num_nodes":"15","size_leaf_vector":"0"}},{"base_weights":[-2.5659949E-3,1.1982068E-1,-1.9571749E0,8.734635E-2,6.52342E1,-7.051599E1,-1.4034853E0,-1.0367203E-2,7.341486E0,-1.2778037E1,1.8234475E0],"categories":[],"categories_nodes":[],"categories_segments":[],"categories_sizes":[],"default_left":[1,1,1,1,0,0,1,0,0,0,0],"id":84,"left_children":[1,3,5,7,-1,-1,9,-1,-1,-1,-1],"loss_changes":[1.5305126E3,1.2725981E4,1.4212068E4,4.26651E3,0E0,0E0,1.3787644E4,0E0,0E0,0E0,0E0],"parents":[2147483647,0,0,1,1,2,2,3,3,6,6],"right_children":[2,4,6,8,-1,-1,10,-1,-1,-1,-1],"split_conditions":[-8.737905E-1,-8.748503E-1,-8.7344253E-1,-8.9183456E-1,3.26171E1,-3.5257996E1,3.6268917E1,-5.1836013E-3,3.670743E0,-6.3890185E0,9.1172373E-1],"split_indices":[0,0,0,0,0,0,7,0,0,0,0],"split_type":[0,0,0,0,0,0,0,0,0,0,0],"sum_hessian":[6.396E3,6.02E3,3.76E2,6.018E3,2E0,2E0,3.74E2,5.939E3,7.9E1,8.2E1,2.92E2],"tree_param":{"num_deleted":"0","num_feature":"46","num_nodes":"11","size_leaf_vector":"0"}},{"base_weights":[-1.978914E-3,-3.2708187E0,5.8912065E-2,1.6468153E0,-5.3051124E0,-1.5716702E-1,1.506252E0,2.0286589E0,-3.1024013E0,-9.891426E0,-2.0803168E0,-4.890387E-2,-7.5389986E0,9.565716E-1,3.8255127E1],"categories":[],"categories_nodes":[],"categories_segments":[],"categories_sizes":[],"default_left":[1,1,1,1,1,1,1,0,0,0,0,0,0,0,0],"id":85,"left_children":[1,3,5,7,9,11,13,-1,-1,-1,-1,-1,-1,-1,-1],"loss_changes":[1.27347E3,1.179194E3,1.9645562E3,6.976472E1,1.2069868E3,4.367951E3,1.6446715E4,0E0,0E0,0E0,0E0,0E0,0E0,0E0,0E0],"parents":[2147483647,0,0,1,1,2,2,3,3,4,4,5,5,6,6],"right_children":[2,4,6,8,10,12,14,-1,-1,-1,-1,-1,-1,-1,-1],"split_conditions":[-9.996561E-1,1.0979922E-1,-2.4345711E-1,5E-1,9.027566E-1,-7.139549E-1,-6.9698834E-1,1.0143294E0,-1.5512006E0,-4.945713E0,-1.0401584E0,-2.4451936E-2,-3.7694993E0,4.782858E-1,1.9127563E1],"split_indices":[0,1,1,21,1,0,0,0,0,0,0,0,0,0,0],"split_type":[0,0,0,0,0,0,0,0,0,0,0,0,0,0,0],"sum_hessian":[6.396E3,1.16E2,6.28E3,3.4E1,8.2E1,5.465E3,8.15E2,3.2E1,2E0,3.3E1,4.9E1,5.387E3,7.8E1,8.04E2,1.1E1],"tree_param":{"num_deleted":"0","num_feature":"46","num_nodes":"15","size_leaf_vector":"0"}},{"base_weights":[4.6250864E-4,2.046398E-2,-1.1613162E1,-2.5910167E-2,9.23089E0,1.43211565E1,-1.8967583E1,1.8335187E-3,-8.816852E1,-9.870158E0,1.9706207E1,-2.4205427E1,-4.2342123E-1],"categories":[],"categories_nodes":[],"categories_segments":[],"categories_sizes":[],"default_left":[1,1,1,1,1,0,1,0,0,0,0,0,0],"id":86,"left_children":[1,3,5,7,9,-1,11,-1,-1,-1,-1,-1,-1],"loss_changes":[1.4861942E3,2.7282908E3,2.3696885E3,1.554313E4,6.597369E3,0E0,8.639341E2,0E0,0E0,0E0,0E0,0E0,0E0],"parents":[2147483647,0,0,1,1,2,2,3,3,4,4,6,6],"right_children":[2,4,6,8,10,-1,12,-1,-1,-1,-1,-1,-1],"split_conditions":[7.13979E-2,-5.7338655E-1,-7.279279E-1,-5.7767385E-1,0E0,7.1605783E0,5.4998577E-1,9.1675937E-4,-4.408426E1,-4.935079E0,9.853104E0,-1.2102714E1,-2.1171062E-1],"split_indices":[0,0,6,0,3,0,0,0,0,0,0,0,0],"split_type":[0,0,0,0,0,0,0,0,0,0,0,0,0],"sum_hessian":[6.396E3,6.386E3,1E1,6.355E3,3.1E1,2E0,8E0,6.354E3,1E0,1.1E1,2E1,6E0,2E0],"tree_param":{"num_deleted":"0","num_feature":"46","num_nodes":"13","size_leaf_vector":"0"}},{"base_weights":[-6.696761E-3,-5.0881185E-2,4.5087743E0,-1.15606405E-1,3.828765E0,7.9797096E0,-3.665583E1,-7.339576E-2,-1.3158618E2,9.119505E0,-2.3783817E1,1.0918916E0,3.4292023E1,-5.1420593E-1,-4.5562687E1],"categories":[],"categories_nodes":[],"categories_segments":[],"categories_sizes":[],"default_left":[1,1,1,1,1,1,1,0,0,0,0,0,0,0,0],"id":87,"left_children":[1,3,5,7,9,11,13,-1,-1,-1,-1,-1,-1,-1,-1],"loss_changes":[1.2765172E3,1.5914817E3,9.151043E3,3.4580113E4,1.5410359E4,1.0474153E4,1.5861133E3,0E0,0E0,0E0,0E0,0E0,0E0,0E0,0E0],"parents":[2147483647,0,0,1,1,2,2,3,3,4,4,5,5,6,6],"right_children":[2,4,6,8,10,12,14,-1,-1,-1,-1,-1,-1,-1,-1],"split_conditions":[5E-1,-7.318243E-1,-8.251304E-1,-7.335222E-1,8.9401925E-1,-9.4353294E-1,-2.857143E-1,-3.669788E-2,-6.579309E1,4.5597525E0,-1.1891909E1,5.459458E-1,1.7146011E1,-2.5710297E-1,-2.2781343E1],"split_indices":[45,0,0,0,4,0,5,0,0,0,0,0,0,0,0],"split_type":[0,0,0,0,0,0,0,0,0,0,0,0,0,0,0],"sum_hessian":[6.396E3,6.335E3,6.1E1,6.232E3,1.03E2,5.7E1,4E0,6.231E3,1E0,8.7E1,1.6E1,4.6E1,1.1E1,1E0,3E0],"tree_param":{"num_deleted":"0","num_feature":"46",